-0.118060 0.199383 -0.189033 -0.087840 0.191348 
-0.011991 0.067393 -0.015997 0.544691 0.634207 
0.148661 0.351216 0.102852 0.284945 0.578554 
0.129821 0.359562 0.019220 0.125876 0.223998 
0.095575 -0.237567 -0.166288 -0.513158 -0.133958 
******************

0.533953 0.377735 0.369613 0.179513 0.414766 
0.312570 0.704814 0.249805 -0.076992 -0.082290 
0.190116 0.483495 -0.069567 -0.148152 -0.207424 
0.038247 -0.132319 -0.364401 -0.510428 -0.203113 
-0.342236 -0.587142 -0.025460 -0.121196 -0.362714 
******************

-0.346520 -0.181779 -0.068472 0.287731 0.560289 
-0.046995 -0.384039 -0.356469 -0.053262 0.221251 
-0.551663 -0.634699 -0.381371 0.127306 0.227093 
-0.804067 -0.370218 -0.124451 0.479735 0.384777 
-0.362692 -0.026800 0.394678 0.338669 0.311272 
******************

0.027680 -0.445767 -0.576214 -0.427424 0.175443 
-1.056873 -0.564716 -0.284254 0.464776 0.323425 
-0.247328 0.374955 0.917441 0.583440 -0.371094 
0.365252 0.388087 -0.060826 -0.342372 -0.315065 
0.230599 0.153220 -0.340888 -0.517145 -0.096136 
******************

-0.150324 -0.413668 -0.247097 -0.319721 -0.681820 
-0.375676 -0.506827 -0.174763 -0.245547 -0.264764 
-0.063982 -0.422009 0.175489 0.462257 -0.089450 
0.471029 0.172250 0.311780 0.381557 0.131579 
0.865371 -0.032722 0.282563 0.369666 0.192547 
******************

-0.357626 -0.275909 -0.008312 -0.247436 -0.702646 
0.288499 0.350420 0.467562 -0.463196 -0.953810 
0.118829 0.577083 0.351304 -0.330165 -0.815465 
0.403288 0.540486 0.137963 0.059416 -0.568461 
0.055887 0.109796 0.375614 0.025270 0.020180 
******************

