0.028034
0.036413
0.039706
0.016026
-0.018058
-0.060156
0.024842
-0.008212
0.031414
0.006929
0.062433
0.057115
0.031876
-0.020262
-0.011896
-0.008532
0.030428
0.027495
0.029522
0.033674
0.000323
-0.013293
0.049635
-0.020388
0.034641
-0.014819
0.005704
-0.125143
-0.066046
-0.059299
-0.071848
-0.049120
-0.037658
0.010233
0.070109
0.031481
-0.004394
0.042813
0.075168
-0.056710
0.046509
-0.038580
0.030480
0.020749
0.012097
0.085483
0.049571
0.056517
-0.009851
0.039620
-0.100478
0.022038
0.028884
0.132971
-0.020151
0.053084
-0.126749
0.041833
-0.082091
0.071343
0.026255
0.004103
-0.004378
-0.013874
0.002361
-0.046555
-0.045403
-0.039797
0.066951
-0.052225
-0.024997
-0.029728
-0.054541
-0.031047
-0.028429
-0.032933
-0.083116
-0.013552
-0.032646
-0.060680
0.071843
0.060240
-0.042434
-0.084212
-0.013822
0.025485
0.003525
-0.003367
-0.073199
0.087650
-0.020375
-0.017821
0.057075
0.005043
0.065523
0.003080
0.044962
-0.024978
-0.003131
0.007871
0.008477
0.068176
-0.035763
0.028805
-0.058475
-0.040722
0.070895
-0.059047
-0.024287
-0.015900
-0.067331
-0.064934
-0.038002
-0.045926
0.069346
-0.040446
0.078507
-0.036761
0.040043
-0.036541
0.028045
-0.011591
0.025362
0.084649
-0.012751
-0.016292
0.001562
0.041970
