0.106848 0.353143 0.537564 
0.023031 0.330645 0.299623 
-0.207188 -0.043636 0.010313 
******************

0.098361 -0.071680 -0.230750 
0.196591 -0.007658 -0.127326 
0.119343 0.245023 0.060073 
******************

-0.063762 -0.070895 -0.212275 
-0.093315 -0.209066 -0.094796 
-0.228489 -0.020690 0.261102 
******************

-0.019932 0.133173 0.264138 
-0.190873 -0.036518 -0.082732 
0.087418 -0.054869 -0.213110 
******************

0.199831 0.217767 -0.134376 
0.016785 -0.310305 -0.249846 
0.046008 -0.092821 0.346265 
******************

-0.126338 -0.300272 -0.131923 
-0.190984 -0.087968 -0.130779 
-0.118452 0.071237 0.531629 
******************

0.225398 0.428122 0.151444 
-0.027088 -0.337188 -0.440101 
-0.156438 -0.256180 0.156059 
******************

-0.186990 -0.136898 0.328872 
-0.066244 0.060875 0.099322 
0.047678 0.047083 -0.217599 
******************

******************
******************


0.225398 0.428122 0.151444 
-0.027088 -0.337188 -0.440101 
-0.156438 -0.256180 0.156059 
******************

-0.186990 -0.136898 0.328872 
-0.066244 0.060875 0.099322 
0.047678 0.047083 -0.217599 
******************

-0.236746 -0.197184 -0.159378 
-0.042502 -0.090017 0.096568 
0.433870 -0.066109 0.222347 
******************

0.196046 0.359325 0.280016 
0.546257 0.389357 0.545537 
0.281425 0.220000 0.287741 
******************

-0.369683 -0.225911 -0.005237 
-0.060719 -0.108552 -0.195234 
0.166024 -0.067006 -0.450270 
******************

-0.350436 -0.249981 0.285452 
0.000037 0.016978 0.114665 
0.074923 0.318325 0.172023 
******************

-0.199354 -0.092362 -0.117908 
-0.087400 -0.546549 -0.075129 
-0.218657 -0.636401 -0.209058 
******************

0.213715 0.119638 0.094115 
0.192896 0.121877 -0.337916 
-0.103531 0.089528 -0.058455 
******************

******************
******************


-0.199354 -0.092362 -0.117908 
-0.087400 -0.546549 -0.075129 
-0.218657 -0.636401 -0.209058 
******************

0.213715 0.119638 0.094115 
0.192896 0.121877 -0.337916 
-0.103531 0.089528 -0.058455 
******************

0.136888 0.280227 0.047524 
0.157763 0.161729 0.362131 
0.342730 0.254227 0.330337 
******************

0.468916 0.206272 -0.180229 
0.472577 0.288303 0.074113 
0.053539 0.059337 0.057302 
******************

0.248912 0.188223 0.244435 
0.053345 -0.065285 0.069790 
0.038862 -0.014055 -0.108143 
******************

0.285730 0.276603 0.210154 
-0.339411 -0.267999 0.132663 
0.310698 -0.043736 -0.455830 
******************

0.141069 0.057248 0.216798 
0.111278 -0.019700 -0.065503 
-0.017616 -0.109536 -0.273899 
******************

0.180279 0.276823 0.043833 
-0.008774 -0.110644 -0.191170 
0.453090 0.244798 0.408179 
******************

******************
******************


0.141069 0.057248 0.216798 
0.111278 -0.019700 -0.065503 
-0.017616 -0.109536 -0.273899 
******************

0.180279 0.276823 0.043833 
-0.008774 -0.110644 -0.191170 
0.453090 0.244798 0.408179 
******************

-0.203338 -0.019717 0.296847 
-0.148691 -0.654965 -0.407394 
0.317937 -0.013584 -0.065988 
******************

0.109613 -0.219240 -0.286617 
-0.092700 -0.032593 0.280987 
0.146026 0.077521 0.057463 
******************

0.285103 0.601531 0.107649 
-0.323296 -0.206699 0.431532 
0.357746 0.013493 0.057373 
******************

-0.013421 -0.032397 -0.089356 
-0.127752 -0.077483 0.014896 
-0.501476 -0.584996 -0.433680 
******************

-0.216085 -0.169364 0.592308 
0.128531 0.283086 0.208160 
0.127684 0.084133 0.001029 
******************

0.132737 0.039736 -0.133175 
-0.053788 0.034925 0.133343 
0.120054 0.015004 0.332160 
******************

******************
******************


-0.216085 -0.169364 0.592308 
0.128531 0.283086 0.208160 
0.127684 0.084133 0.001029 
******************

0.132737 0.039736 -0.133175 
-0.053788 0.034925 0.133343 
0.120054 0.015004 0.332160 
******************

0.004688 0.153345 -0.376941 
0.045240 -0.380835 -0.249498 
-0.099458 -0.205120 0.013613 
******************

0.318291 0.116078 0.050906 
0.299442 -0.136614 -0.265233 
0.000118 -0.121499 0.231741 
******************

0.143049 0.134327 -0.119645 
-0.021033 0.240597 -0.188741 
0.183181 0.014677 -0.087604 
******************

0.201349 -0.403065 -0.339950 
-0.184459 -0.184382 0.187200 
-0.424704 -0.051684 0.339969 
******************

-0.019521 0.182037 0.309948 
0.274689 0.179492 0.039391 
0.194379 0.051330 0.127204 
******************

-0.221196 -0.396338 -0.057835 
-0.168185 -0.221888 0.095572 
-0.026018 -0.087686 -0.037688 
******************

******************
******************


-0.019521 0.182037 0.309948 
0.274689 0.179492 0.039391 
0.194379 0.051330 0.127204 
******************

-0.221196 -0.396338 -0.057835 
-0.168185 -0.221888 0.095572 
-0.026018 -0.087686 -0.037688 
******************

0.242193 0.510036 0.476612 
0.150861 -0.196639 -0.129455 
-0.202651 -0.253536 0.004397 
******************

-0.044174 -0.236538 -0.210715 
0.221352 0.151103 -0.231684 
0.327711 0.528903 0.232510 
******************

-0.125638 0.126894 -0.001445 
-0.093706 -0.169303 -0.174589 
0.118275 0.329594 0.051261 
******************

0.135063 -0.096473 -0.113925 
-0.012576 -0.221819 -0.014311 
0.338755 0.045265 0.235068 
******************

-0.005252 0.084750 -0.222591 
0.203730 -0.175696 -0.103708 
0.139159 0.294119 0.284317 
******************

-0.344516 -0.168881 -0.066677 
0.051653 0.157764 0.336456 
-0.074920 -0.015909 -0.301087 
******************

******************
******************


-0.005252 0.084750 -0.222591 
0.203730 -0.175696 -0.103708 
0.139159 0.294119 0.284317 
******************

-0.344516 -0.168881 -0.066677 
0.051653 0.157764 0.336456 
-0.074920 -0.015909 -0.301087 
******************

0.129692 0.078159 -0.087677 
0.203951 0.015715 -0.207242 
0.148609 0.556356 0.591847 
******************

-0.155681 -0.078337 0.327442 
-0.150973 -0.165040 -0.032754 
-0.225511 -0.345785 -0.374909 
******************

0.000567 -0.059847 -0.110940 
0.095426 0.087653 0.311094 
-0.336230 -0.013400 0.006502 
******************

-0.033427 -0.064730 -0.543155 
0.141605 0.103356 -0.423809 
0.275467 -0.240632 -0.220787 
******************

-0.006880 -0.168428 -0.040678 
0.041885 0.095868 -0.263913 
0.111286 -0.188274 -0.338230 
******************

0.180941 0.173436 0.327101 
-0.042487 -0.076270 0.095986 
0.221663 -0.019130 0.190498 
******************

******************
******************


-0.006880 -0.168428 -0.040678 
0.041885 0.095868 -0.263913 
0.111286 -0.188274 -0.338230 
******************

0.180941 0.173436 0.327101 
-0.042487 -0.076270 0.095986 
0.221663 -0.019130 0.190498 
******************

0.169201 0.111332 0.012557 
-0.147961 0.222821 0.244835 
0.266779 0.374645 -0.011438 
******************

-0.072392 -0.287836 -0.222147 
-0.153715 -0.385568 -0.270444 
0.127718 -0.156282 -0.126729 
******************

0.172811 0.023677 0.088045 
0.061139 0.011387 0.114795 
-0.143979 0.084421 0.154621 
******************

0.084315 -0.058005 0.069032 
-0.011030 -0.206548 0.101473 
-0.346967 0.025338 0.413477 
******************

0.138015 0.005523 0.230891 
0.291413 0.348450 0.258129 
0.147156 -0.159286 -0.144119 
******************

-0.082069 0.278681 0.266325 
0.120406 -0.161575 -0.122869 
0.023860 0.000973 0.006511 
******************

******************
******************


0.138015 0.005523 0.230891 
0.291413 0.348450 0.258129 
0.147156 -0.159286 -0.144119 
******************

-0.082069 0.278681 0.266325 
0.120406 -0.161575 -0.122869 
0.023860 0.000973 0.006511 
******************

0.020643 -0.036883 0.180693 
-0.241988 -0.214267 0.118383 
-0.073517 0.007199 -0.319267 
******************

-0.063525 0.139959 0.206514 
-0.045773 -0.509345 -0.377896 
-0.561034 0.008257 0.321589 
******************

-0.266107 -0.112749 0.080235 
-0.215881 -0.203977 -0.485549 
-0.294045 0.238669 -0.037941 
******************

0.053384 -0.079791 -0.282108 
-0.304000 -0.143522 0.252779 
0.235492 0.415198 0.353413 
******************

0.051468 0.223117 0.311695 
0.624823 -0.039450 0.088144 
-0.195852 -0.047495 0.135429 
******************

0.121221 0.046981 0.283093 
-0.002685 -0.206886 -0.157045 
-0.296966 -0.412176 -0.584074 
******************

******************
******************


0.051468 0.223117 0.311695 
0.624823 -0.039450 0.088144 
-0.195852 -0.047495 0.135429 
******************

0.121221 0.046981 0.283093 
-0.002685 -0.206886 -0.157045 
-0.296966 -0.412176 -0.584074 
******************

0.038784 0.010907 0.436344 
0.048619 -0.388900 -0.235081 
0.068871 -0.234254 -0.080858 
******************

-0.233209 -0.255163 -0.244486 
-0.222798 -0.023359 -0.146605 
-0.079855 0.262283 0.031879 
******************

-0.198006 -0.171317 0.143227 
0.060975 -0.111228 0.013450 
0.218632 0.303981 -0.034198 
******************

0.026538 0.103623 0.074254 
0.250234 -0.107016 0.042998 
-0.198935 -0.167737 -0.008159 
******************

-0.045729 -0.210300 -0.008910 
0.007110 0.529445 0.158138 
-0.032166 0.246617 0.440871 
******************

0.223681 0.019111 0.267057 
-0.065649 -0.026196 0.155239 
0.142054 0.026137 0.065903 
******************

******************
******************


-0.045729 -0.210300 -0.008910 
0.007110 0.529445 0.158138 
-0.032166 0.246617 0.440871 
******************

0.223681 0.019111 0.267057 
-0.065649 -0.026196 0.155239 
0.142054 0.026137 0.065903 
******************

-0.477840 0.042346 -0.262227 
0.097241 -0.075886 -0.014155 
-0.118380 0.237040 0.171203 
******************

-0.213897 -0.246351 -0.309232 
-0.312686 -0.311058 -0.230547 
-0.204594 -0.059769 -0.408978 
******************

0.332603 -0.043729 -0.195725 
0.306667 0.482131 0.292527 
0.333625 -0.300501 -0.023838 
******************

-0.004545 0.015194 0.003244 
-0.056116 0.301106 -0.083473 
-0.224182 -0.597455 -0.010567 
******************

0.012170 -0.153598 0.049701 
0.081312 0.280779 0.101794 
0.105023 -0.034479 -0.231461 
******************

0.133189 0.299131 0.409251 
-0.234715 -0.295424 -0.287657 
-0.241571 -0.140730 0.113292 
******************

******************
******************


0.012170 -0.153598 0.049701 
0.081312 0.280779 0.101794 
0.105023 -0.034479 -0.231461 
******************

0.133189 0.299131 0.409251 
-0.234715 -0.295424 -0.287657 
-0.241571 -0.140730 0.113292 
******************

0.138822 -0.024908 0.093768 
-0.110240 0.261949 -0.021045 
-0.464011 -0.414521 -0.139795 
******************

0.085284 0.012596 0.064277 
-0.112197 -0.119380 -0.027320 
0.209150 0.064390 0.181029 
******************

-0.051363 -0.119109 0.016392 
0.453916 0.454352 0.021834 
-0.120920 0.013192 0.408552 
******************

-0.169280 -0.288964 -0.295217 
0.218359 0.118288 0.019872 
-0.293539 -0.522411 -0.269186 
******************

0.137733 0.097195 0.081060 
0.171305 -0.035810 -0.280648 
0.224347 -0.148122 -0.120593 
******************

-0.024449 0.045113 0.108793 
-0.098055 0.009167 0.306540 
0.368391 -0.169133 0.441295 
******************

******************
******************


0.137733 0.097195 0.081060 
0.171305 -0.035810 -0.280648 
0.224347 -0.148122 -0.120593 
******************

-0.024449 0.045113 0.108793 
-0.098055 0.009167 0.306540 
0.368391 -0.169133 0.441295 
******************

-0.148028 -0.015062 0.040980 
-0.009959 -0.061735 0.331977 
0.237895 0.117857 -0.027981 
******************

-0.000859 -0.254288 0.075013 
0.193120 0.088116 0.276729 
-0.078140 0.212083 -0.172266 
******************

0.370680 0.474994 0.181956 
0.004264 -0.048580 0.586980 
0.083216 0.531912 -0.052668 
******************

-0.241337 0.092907 -0.000803 
-0.015442 -0.257889 -0.051022 
0.149503 0.000580 0.128427 
******************

-0.200253 0.081282 -0.193167 
0.205121 0.125065 0.404231 
-0.209390 -0.274076 0.202094 
******************

-0.256262 -0.373024 -0.369987 
-0.378436 -0.489888 -0.433461 
-0.084399 -0.308922 -0.134090 
******************

******************
******************


-0.200253 0.081282 -0.193167 
0.205121 0.125065 0.404231 
-0.209390 -0.274076 0.202094 
******************

-0.256262 -0.373024 -0.369987 
-0.378436 -0.489888 -0.433461 
-0.084399 -0.308922 -0.134090 
******************

0.136382 -0.007114 0.106095 
0.114787 0.132649 0.208537 
0.353733 0.162304 -0.027857 
******************

-0.159090 -0.237936 -0.006225 
-0.118841 -0.222113 -0.125951 
0.390099 0.027652 -0.077543 
******************

-0.053759 0.249877 -0.104529 
0.018646 -0.223360 -0.051260 
-0.316646 0.028126 -0.035202 
******************

0.087007 0.153804 0.311769 
-0.063675 -0.152975 -0.295171 
-0.366267 -0.399733 -0.055961 
******************

0.047285 -0.017834 -0.203576 
0.240202 0.238180 0.085696 
-0.107208 -0.228340 0.120968 
******************

-0.008251 0.146274 0.043257 
0.104466 0.281479 -0.003244 
0.167058 0.252995 0.455996 
******************

******************
******************


0.047285 -0.017834 -0.203576 
0.240202 0.238180 0.085696 
-0.107208 -0.228340 0.120968 
******************

-0.008251 0.146274 0.043257 
0.104466 0.281479 -0.003244 
0.167058 0.252995 0.455996 
******************

-0.188668 0.202568 0.218796 
0.433930 0.148177 -0.282085 
0.269489 0.093921 0.181647 
******************

-0.306819 -0.292934 -0.339124 
-0.147944 -0.109201 -0.226741 
0.004104 -0.122284 -0.195640 
******************

0.093632 0.378595 0.281671 
-0.228092 0.218705 0.209314 
0.228675 0.209197 -0.066011 
******************

0.035212 0.223488 -0.102612 
-0.040458 -0.060388 0.022239 
-0.128575 -0.030699 0.265614 
******************

-0.141201 0.091531 -0.327171 
-0.117044 0.158290 -0.346022 
-0.058777 -0.296610 -0.097705 
******************

0.364781 0.062828 0.213562 
0.000661 0.195557 0.113553 
0.061849 0.035677 0.031812 
******************

******************
******************


-0.141201 0.091531 -0.327171 
-0.117044 0.158290 -0.346022 
-0.058777 -0.296610 -0.097705 
******************

0.364781 0.062828 0.213562 
0.000661 0.195557 0.113553 
0.061849 0.035677 0.031812 
******************

-0.021013 0.108983 -0.356202 
-0.154316 0.168216 -0.066346 
-0.042616 -0.189539 0.032761 
******************

-0.330708 -0.091974 -0.138677 
0.033657 0.123538 0.208028 
0.199331 0.474190 0.596928 
******************

0.253152 -0.203202 0.256790 
-0.470767 0.268834 -0.204421 
0.232496 -0.109925 -0.257173 
******************

-0.146228 -0.144636 0.090532 
-0.004669 0.370138 -0.165166 
0.272262 -0.143203 -0.168823 
******************

-0.045048 0.276493 0.016873 
0.274089 0.233227 0.195598 
0.262381 0.298488 0.181990 
******************

-0.201229 -0.265371 -0.226661 
-0.123378 -0.270498 0.065016 
0.079149 -0.025480 0.152256 
******************

******************
******************


