-0.295999 0.047167 -0.055471 
-0.146318 0.245172 0.509601 
0.000685 -0.022522 -0.015157 
******************

0.238409 0.183892 -0.086533 
-0.262539 -0.153446 0.022020 
0.230613 0.525169 0.319282 
******************

-0.324493 0.396170 0.399505 
-0.146153 0.124306 -0.076158 
-0.377134 -0.395933 -0.285757 
******************

0.005507 -0.042771 -0.287288 
0.136114 0.475103 0.423250 
0.051405 0.302943 0.111127 
******************

0.205468 -0.099924 0.129141 
0.206207 -0.072540 -0.105777 
-0.354157 -0.629123 -0.046149 
******************

-0.312916 -0.241166 0.018506 
-0.070596 -0.165675 -0.001454 
-0.315535 -0.515689 -0.459145 
******************

******************
******************


-0.368578 -0.089429 -0.530616 
0.035280 -0.040332 -0.004536 
0.277819 0.017312 -0.214789 
******************

-0.193628 -0.100346 0.306273 
-0.157861 -0.382983 -0.589215 
0.075315 0.055466 -0.038104 
******************

-0.001127 0.163009 -0.065231 
-0.096839 -0.341700 -0.307159 
-0.170745 -0.333401 -0.137482 
******************

0.081251 0.285725 0.207737 
0.170438 -0.049303 0.168025 
-0.479493 -0.134781 0.126068 
******************

0.031516 0.048819 -0.431827 
-0.157584 0.199044 0.258237 
0.217048 0.305524 0.561389 
******************

0.329098 -0.448848 -0.018038 
0.630221 -0.028852 -0.018635 
0.423652 0.399645 0.385005 
******************

******************
******************


-0.083619 -0.040928 0.046964 
-0.021495 -0.355015 0.058383 
-0.182657 -0.116568 0.221650 
******************

-0.047993 0.125964 -0.281181 
0.111991 -0.125041 -0.498577 
0.246921 -0.148107 0.104494 
******************

0.260188 0.116367 0.018024 
0.041830 -0.344373 0.188821 
-0.299366 0.030325 0.162726 
******************

-0.098011 -0.122097 -0.303933 
0.242106 -0.176599 -0.274786 
-0.240016 -0.205136 -0.094088 
******************

0.074417 -0.186071 0.068509 
0.348710 -0.157005 0.053640 
-0.028520 -0.006823 0.274738 
******************

0.083387 0.134425 -0.341528 
0.554506 0.036186 -0.239785 
0.269307 -0.156334 -0.298892 
******************

******************
******************


0.000864 0.232321 -0.237938 
-0.259117 -0.225699 0.154479 
-0.090132 -0.163058 -0.036026 
******************

-0.290274 0.008790 0.297869 
-0.250209 -0.470431 0.172418 
-0.374761 -0.351653 0.188943 
******************

0.465561 0.087101 -0.223800 
0.102109 0.120041 0.483222 
0.397386 -0.042230 -0.093437 
******************

0.123679 0.087310 -0.026932 
0.272082 -0.330335 -0.381064 
-0.004376 0.273005 -0.026910 
******************

-0.021643 -0.240345 -0.115037 
0.078873 0.097857 0.029820 
0.083310 -0.001013 -0.503617 
******************

-0.198964 0.144369 0.545305 
0.011636 -0.199459 0.328143 
-0.334030 0.168810 0.206430 
******************

******************
******************


-0.163469 -0.176550 -0.121281 
-0.612690 0.010478 0.141257 
0.042229 -0.042429 0.243828 
******************

0.447586 0.352071 0.166424 
0.289622 -0.365565 -0.545482 
0.276597 -0.335940 -0.343362 
******************

0.071104 0.125455 0.663267 
-0.263725 0.070536 0.124429 
0.077407 0.226032 -0.063941 
******************

0.061715 -0.368682 0.297004 
0.127798 0.140119 0.158125 
-0.100302 0.174567 -0.021246 
******************

-0.297250 -0.690023 -0.054037 
0.195545 0.199018 0.160465 
-0.028725 0.100681 0.216796 
******************

0.113159 -0.423440 -0.218879 
0.384762 -0.164915 -0.150840 
0.334363 0.153526 0.141297 
******************

******************
******************


0.175727 0.251322 -0.397080 
0.260147 -0.287887 -0.641501 
0.035565 -0.224224 -0.116079 
******************

0.215418 0.264336 0.146912 
0.081450 0.541533 0.207077 
0.240475 0.001064 -0.023401 
******************

-0.230766 -0.043001 -0.480940 
0.044692 -0.288311 -0.289529 
-0.090038 -0.403590 -0.147204 
******************

-0.207638 0.372113 0.336164 
0.324463 -0.042139 -0.068524 
-0.191642 0.138953 0.247208 
******************

-0.062889 -0.008259 -0.215698 
-0.176001 -0.047152 0.115796 
-0.242650 -0.019184 -0.107183 
******************

-0.077005 0.194162 0.264568 
-0.011816 0.576842 -0.167520 
0.290319 -0.009955 -0.473576 
******************

******************
******************


0.013017 -0.122552 -0.100374 
-0.491123 0.264008 0.098812 
0.426742 0.625012 -0.105285 
******************

-0.248407 0.391840 0.007736 
0.051788 -0.628380 -0.322538 
-0.192398 0.058807 0.859413 
******************

-0.074250 -0.198549 0.096828 
-0.329469 -0.256086 0.267400 
-0.335193 -0.126089 -0.617327 
******************

0.347921 0.088845 0.141097 
-0.437337 -0.106178 0.486107 
0.384196 0.410813 0.189704 
******************

-0.260427 -0.113025 -0.002460 
0.505556 0.310338 0.607759 
-0.060208 0.055845 0.005592 
******************

-0.118634 0.066418 -0.124187 
0.210883 0.199199 0.093514 
-0.306848 0.135114 0.114960 
******************

******************
******************


-0.299419 -0.416867 0.088876 
0.598015 0.439322 0.301736 
0.337257 0.117454 0.193637 
******************

-0.203534 -0.400950 -0.431374 
-0.004928 -0.071450 0.036197 
0.358150 0.211794 0.528951 
******************

0.162181 0.216688 0.120711 
-0.081558 -0.073086 -0.062185 
-0.289979 0.042349 0.146657 
******************

0.521407 0.012218 -0.246078 
0.072649 -0.043025 -0.183151 
-0.590693 -0.448524 -0.447671 
******************

-0.099038 0.244262 0.099515 
0.305130 0.163300 0.540125 
-0.402933 -0.549209 -0.160596 
******************

-0.253547 0.134133 0.110405 
0.474369 0.385604 0.692783 
0.356573 0.299266 0.101514 
******************

******************
******************


