0.086914	0.090323	0.146342	-0.013623	0.079359	0.055091	0.136608	0.098137	-0.049560	0.019187	0.013527	-0.023622	-0.239862	-0.097164	-0.148895	0.148619	0.121849	-0.061064	0.183720	0.016698	-0.015415	0.143115	-0.013794	0.089903	-0.091744	0.098129	-0.031512	-0.274167	0.101856	-0.028945	-0.210523	0.114208	-0.141514	0.034777	0.012975	-0.070203	-0.161850	0.088813	-0.097382	-0.106230	0.004358	-0.146516	0.064720	-0.036406	0.066557	0.131265	-0.014448	0.125436	-0.176033	0.090026	-0.016117	-0.079685	-0.271202	-0.091721	-0.160296	-0.065989	-0.112008	-0.223752	-0.022729	-0.111233	0.169006	-0.106320	0.082030	-0.118854	0.034119	-0.183099	0.032338	0.037506	-0.028171	0.031018	0.035294	-0.076012	0.096198	0.155397	0.088830	0.069361	0.017440	0.006546	-0.088888	0.015029	0.068484	0.053644	-0.012602	0.089906	0.047146	-0.040052	0.005186	0.045627	0.242793	0.070376	-0.004206	-0.075935	-0.103883	-0.116006	0.031687	-0.236595	0.111090	0.000491	-0.145659	0.207643	-0.205471	0.221093	0.070910	0.145355	-0.010518	0.076670	-0.013004	-0.018533	-0.007453	-0.007648	0.064672	0.173537	-0.088880	-0.081560	-0.181581	0.055049	-0.064377	-0.125464	0.138412	-0.012887	-0.070953	0.013579	-0.199094	-0.030893	0.198455	-0.098157	0.190610	0.074561	0.048646	0.029321	0.066828	-0.107653	-0.112669	0.152103	-0.089119	0.167405	0.060462	0.172560	-0.094590	-0.049228	-0.120491	-0.083349	0.050345	-0.083737	-0.069924	-0.138955	0.120377	-0.070482	-0.011887	0.126906	0.060726	0.068136	0.066610	0.034834	-0.095235	0.025281	0.004573	-0.048609	-0.105769	0.091152	-0.042527	-0.039486	0.103461	0.011822	0.099199	0.099987	0.007734	0.166546	0.033532	-0.029712	0.107044	0.104885	0.092133	-0.120734	0.175963	-0.049049	0.129514	0.097784	0.024036	0.160048	0.009232	-0.148791	0.043038	0.009338	0.080933	-0.080694	-0.130062	-0.069709	-0.010144	-0.068784	-0.053531	0.200014	0.048676	-0.190080	0.079126	0.012019	-0.182721	0.050339	-0.004159	0.050079	-0.003547	0.106013	-0.018489	0.066061	-0.054924	-0.131265	-0.134665	-0.138178	-0.018510	-0.168843	-0.035022	-0.080684	0.021856	0.167929	-0.126590	0.070346	-0.034414	-0.008921	0.039855	-0.065227	-0.045099	-0.080573	-0.062319	0.149196	-0.128199	-0.038374	0.008997	-0.064343	-0.002517	0.051083	-0.081451	-0.101020	-0.186467	0.017495	-0.202604	0.054771	-0.063642	0.118725	0.082682	0.095927	0.022677	-0.049194	-0.025222	-0.105752	0.070397	-0.126316	-0.154592	-0.027294	-0.081417	-0.100810	-0.132587	-0.067660	-0.128118	0.211822	-0.032635	0.067896	
0.139709	-0.054639	0.183386	-0.019662	0.138474	0.098511	0.049156	0.015739	0.125800	0.100019	-0.032749	-0.086064	-0.094244	-0.023285	-0.226109	-0.029872	-0.054683	0.124625	0.096917	-0.097211	-0.052973	0.035998	0.242704	-0.099187	-0.050323	-0.130710	0.003717	-0.065589	-0.108363	-0.073225	-0.015347	0.193708	-0.050904	0.211862	-0.099829	0.064819	-0.235030	0.019915	-0.007098	-0.058228	-0.203273	-0.029066	-0.085564	-0.196531	-0.068965	-0.022021	-0.138949	0.156076	0.109828	0.136350	-0.236156	-0.020055	-0.256139	0.070532	-0.083805	-0.118304	-0.076182	-0.195994	-0.148765	-0.021973	0.115971	-0.150886	0.039176	-0.059364	0.121786	-0.080741	0.149306	0.025725	0.068567	-0.009309	0.162739	0.106806	-0.097208	0.066049	-0.009552	0.242853	0.004700	-0.108518	-0.003996	0.112412	0.012358	-0.358568	0.066526	-0.078250	0.071198	-0.156815	0.140064	0.129496	-0.041174	0.115515	-0.017218	0.119226	-0.097858	-0.033702	0.072212	-0.113609	-0.020362	-0.071751	-0.060063	0.032407	0.051775	0.041838	0.032542	-0.042479	0.050185	-0.100399	-0.034097	0.114958	0.031796	0.064794	0.163990	-0.092746	-0.199275	0.016909	-0.199127	0.050603	-0.174736	-0.010347	0.038880	0.011177	-0.140810	0.082465	-0.082441	-0.076004	0.021146	0.040636	0.071777	-0.065193	0.032435	0.084669	-0.045366	0.062646	-0.100629	0.055717	0.077414	-0.047975	-0.069912	0.178773	-0.066433	-0.058169	-0.003987	-0.013529	0.076670	-0.001537	-0.120910	-0.161242	-0.174361	0.098681	0.048177	-0.008483	-0.124222	0.092192	-0.121731	0.015283	-0.100981	-0.171824	0.064493	0.105487	-0.039972	-0.044232	0.048674	0.024747	-0.276738	0.086376	0.217315	-0.034554	-0.019301	-0.003921	0.017807	-0.020502	0.038768	-0.079306	-0.005622	-0.139213	0.169764	-0.089182	0.004593	0.036244	0.022502	0.025762	0.174093	0.090102	0.057331	0.139397	0.006899	0.043594	0.078514	0.023817	0.007649	-0.066909	-0.016510	0.074264	0.104663	-0.133022	0.019799	0.120229	-0.071315	0.063355	-0.150929	0.042884	-0.083315	-0.014267	0.025680	0.037818	-0.060288	-0.117057	0.031414	0.128839	0.019181	-0.139232	-0.211513	-0.040966	-0.053347	-0.055210	-0.199896	0.052350	-0.304759	-0.025419	0.117469	0.085911	0.064214	-0.044559	0.057462	0.103838	-0.174420	0.127141	-0.030633	0.114220	0.131102	0.142820	-0.122788	-0.026434	0.048654	-0.067929	0.101230	-0.071774	-0.031580	-0.021776	-0.185225	0.151385	0.037802	-0.036441	-0.024035	0.058462	0.035115	-0.104329	-0.055188	0.084318	0.056235	-0.097734	0.076126	0.143473	-0.020721	-0.040927	-0.037234	0.060772	
-0.031102	0.033081	0.028696	0.148902	0.041657	0.092274	0.035378	-0.145776	-0.027441	0.056674	0.082225	-0.055858	-0.037923	-0.019070	0.102849	0.101179	0.071641	0.072110	0.099277	0.060444	0.038609	0.038431	0.185682	0.030688	0.111683	-0.110939	-0.107892	0.171484	-0.071484	-0.070576	-0.034829	0.068650	0.106786	0.136154	-0.061789	0.070310	0.053576	-0.044382	0.106490	-0.075734	-0.099399	-0.033419	-0.031558	0.096736	0.045002	-0.051298	-0.185403	-0.086208	0.078241	0.111319	0.134766	-0.068483	-0.049737	0.035414	-0.047240	-0.135438	0.100993	0.059239	-0.116499	-0.003816	-0.019481	0.108572	-0.145547	0.067379	0.244154	0.097359	0.066583	0.071026	0.127388	0.000775	0.078427	-0.051157	-0.126589	-0.127862	0.006639	0.019971	-0.017815	0.065488	0.011445	-0.124288	-0.021474	0.085689	0.069159	-0.120876	-0.104259	-0.070774	0.075996	-0.001606	-0.074719	0.000307	-0.002926	0.045629	-0.076822	0.191665	-0.116319	-0.105110	0.067054	0.196943	0.111218	-0.044859	-0.024541	-0.020912	0.076331	-0.014382	0.015950	-0.124566	-0.173968	0.139572	0.039476	0.001232	-0.108724	0.009424	0.101224	-0.239325	0.008291	0.015363	-0.047460	-0.061606	-0.110051	0.025711	-0.066533	-0.071870	0.153396	0.110482	-0.108620	0.059432	0.023605	0.118270	0.011081	0.093052	0.254115	-0.013744	0.377229	-0.027291	0.101481	0.197407	-0.002855	0.204959	0.002526	-0.010479	0.036413	-0.109103	0.018030	-0.100361	0.122605	-0.065317	0.084383	0.059727	-0.042093	0.065204	0.026255	0.128353	-0.148263	0.111834	0.162103	-0.182348	-0.127199	-0.148342	-0.079520	-0.034901	-0.091660	0.012590	-0.028693	0.086300	-0.133682	-0.053232	-0.141942	0.092876	-0.032388	-0.019878	-0.130858	0.075182	-0.068355	0.112572	-0.014001	0.165354	-0.028774	-0.143925	-0.092948	-0.189737	0.087696	0.036514	-0.094940	0.032485	-0.139855	0.033968	0.082868	0.009081	-0.110232	0.069021	0.002159	-0.032506	0.058513	0.093254	-0.014871	0.045455	-0.080452	0.204069	-0.094303	0.086385	-0.008048	-0.001679	0.041161	0.135706	0.056177	-0.024750	0.002824	0.189813	-0.033698	0.064179	-0.012149	0.117774	0.097186	-0.136685	0.024059	0.075148	0.065055	0.031961	-0.032870	-0.005201	0.102939	0.120856	-0.012664	0.079938	-0.113228	0.046404	-0.113773	-0.063418	0.156141	0.083183	0.199918	-0.079494	0.154212	0.077423	0.179069	0.027580	-0.086508	-0.037739	0.006778	-0.053787	-0.049086	-0.211872	-0.261046	-0.066117	-0.181492	0.074054	0.111952	0.111053	0.015312	0.178382	-0.028379	0.045220	0.025992	-0.020548	-0.057249	0.044000	
-0.148190	-0.081374	-0.286325	-0.070918	0.115686	0.030175	-0.047423	0.198052	0.037472	0.033500	-0.142186	-0.016779	0.045176	-0.160972	-0.050624	0.089465	0.212519	-0.143428	-0.261725	-0.058961	0.172741	0.013901	-0.047195	0.065669	-0.243373	0.133109	-0.166751	0.073817	0.009193	-0.102626	0.059272	0.035830	-0.001651	-0.132298	0.002937	0.008548	0.112515	-0.010440	-0.147168	0.022181	-0.118103	0.135335	-0.124872	0.199769	0.107410	0.066587	-0.065499	-0.052784	0.134682	0.078404	0.098568	0.061176	0.002456	-0.003783	-0.029061	0.139258	0.034648	-0.085304	0.004752	0.024435	0.081607	0.058094	0.044384	-0.068082	-0.040750	0.265220	-0.167946	-0.048519	0.050585	-0.046285	-0.115496	-0.023607	0.054757	0.018475	0.045311	-0.107629	0.098475	0.192807	0.037322	-0.057392	0.011752	0.294402	0.003607	-0.132412	-0.098748	-0.027609	-0.129183	-0.098325	0.116851	0.081555	-0.030713	0.018762	-0.109733	0.056333	0.058423	0.237371	-0.061291	0.184561	-0.094811	0.040888	-0.069644	0.007408	0.118028	-0.089095	-0.012171	0.042388	-0.059939	0.094125	-0.042637	0.056907	-0.120839	0.172776	-0.022426	0.109506	0.069401	0.046176	-0.115557	0.087299	0.163105	-0.079393	0.013004	-0.042645	0.066327	0.106321	-0.062401	0.093333	-0.010807	0.033418	-0.109456	0.282346	0.071263	-0.188732	-0.062332	-0.153271	-0.072403	0.061410	-0.126496	0.005366	-0.099459	-0.092117	-0.024389	0.110125	0.011790	0.023119	0.089650	0.035966	0.030307	-0.163203	0.086493	-0.153797	0.076488	0.081040	0.072829	0.060343	-0.075133	-0.016501	-0.193942	0.036996	-0.086327	0.078035	-0.022491	0.037520	0.142444	0.043999	0.016292	-0.059051	0.015014	-0.092682	0.004769	-0.109691	-0.079657	0.035963	-0.027218	0.094881	-0.071990	-0.142824	-0.034788	0.011378	-0.190668	-0.036607	-0.049290	-0.049985	-0.059112	-0.074747	-0.003486	0.085140	0.075589	-0.112836	0.082812	0.027487	-0.013217	0.087511	-0.044370	0.100744	0.084998	-0.104312	0.109347	0.066606	0.062509	0.093821	0.141531	-0.188052	-0.072853	0.134824	0.107617	0.001212	0.035944	-0.226236	0.160911	-0.009042	0.105654	0.033021	-0.002540	-0.079388	0.057680	0.061947	0.044062	-0.027932	-0.005964	-0.072254	0.026020	0.049116	0.086929	0.075848	-0.017129	-0.171571	0.019578	-0.027078	-0.021103	-0.130499	0.098771	0.063413	-0.015511	-0.157113	-0.030990	0.183576	-0.040167	-0.039329	-0.096532	-0.152285	-0.052368	0.041905	-0.031838	-0.041623	-0.033106	-0.029400	0.109981	-0.021088	0.109631	0.076079	0.133094	-0.057370	0.134137	-0.030588	0.032357	-0.075100	
0.036448	0.036690	-0.001905	-0.111292	-0.147871	0.198820	0.042394	-0.127745	-0.073452	-0.104861	0.044604	-0.015725	-0.154715	-0.083551	-0.104711	-0.086874	-0.086552	0.122211	0.141876	-0.012809	-0.005984	0.093968	-0.075916	-0.042401	-0.015222	-0.200192	-0.186949	0.065345	0.069456	0.103256	0.057677	-0.030440	0.002601	-0.047625	0.006470	-0.201773	-0.023864	0.032207	-0.087304	0.023648	-0.048216	0.103329	-0.090970	-0.070633	-0.138432	-0.161485	0.102962	-0.014691	0.198783	0.064856	-0.027948	0.208680	0.039041	-0.064932	-0.122931	-0.015139	0.158111	-0.039031	0.044639	0.198767	0.076441	0.046603	0.046938	0.027489	-0.117464	0.024057	0.072994	0.019590	-0.007218	0.125588	-0.004997	-0.016566	0.118807	-0.075720	0.094173	0.013783	-0.223598	0.042839	-0.003418	0.010944	-0.144339	-0.074535	0.029172	-0.166326	-0.157160	0.101902	0.051029	-0.034701	0.002742	-0.015567	-0.019876	-0.031768	0.019387	-0.010406	0.040347	-0.012519	-0.106534	-0.078906	-0.023373	0.096103	0.010684	-0.024602	-0.167907	0.112731	-0.059036	-0.075518	0.157742	-0.024399	-0.117495	0.008941	0.069041	-0.022976	0.087491	-0.085343	0.037416	-0.135124	-0.031582	-0.021902	0.052418	0.144518	-0.077624	-0.181102	-0.031232	0.170114	-0.075483	0.090090	-0.044082	-0.083556	0.018752	0.204023	0.164218	0.115675	0.126315	-0.056636	0.078667	0.030744	0.179600	0.123586	-0.102413	-0.144621	-0.151036	0.009340	-0.215915	-0.040546	-0.064590	-0.013048	0.181552	-0.219070	-0.020259	-0.059303	-0.130793	0.007093	-0.013189	0.049051	-0.127943	-0.002342	0.094432	0.008622	0.041789	0.066764	-0.081500	0.058844	0.004764	-0.012106	0.058902	-0.088187	-0.083562	0.023864	0.060067	-0.122170	0.094845	-0.023452	-0.162335	-0.128567	0.118142	0.016531	-0.049853	0.035449	-0.014773	-0.113851	-0.017842	-0.021299	-0.035405	-0.083878	0.136556	-0.024308	-0.059122	-0.114558	0.076679	0.091295	-0.069258	0.052515	-0.130463	0.130987	0.151921	-0.078369	0.182810	0.062923	-0.119741	0.039852	0.015698	-0.060828	-0.115520	0.021657	-0.048787	0.070906	-0.208880	0.093568	0.031506	0.015847	0.150038	0.121280	0.157568	0.040911	-0.053808	-0.066297	0.105587	0.017378	-0.125309	0.104397	0.054427	-0.116492	-0.019752	0.066098	-0.131713	0.000247	0.117917	0.107160	-0.078248	0.033907	-0.001759	-0.089939	0.078432	-0.110160	0.130358	0.137595	0.072377	0.036222	-0.114389	-0.065100	0.089297	-0.007904	-0.131883	-0.052877	-0.137021	-0.029491	-0.097097	-0.129508	-0.057630	-0.066896	-0.049696	0.013341	-0.116226	-0.134600	-0.011329	0.021786	
-0.070716	-0.120948	-0.170471	-0.107858	-0.080662	0.132175	-0.106948	-0.120859	-0.092528	-0.103157	0.067683	-0.092626	-0.046880	0.067815	-0.042126	0.044324	-0.064482	0.139821	-0.122201	0.183601	-0.125389	0.014207	0.033298	-0.118043	-0.052871	-0.052617	-0.063961	-0.147489	0.165041	0.037371	0.058765	0.037632	0.032436	0.023137	-0.106019	-0.141369	-0.127846	0.037400	0.109893	-0.070212	0.064099	0.076917	-0.070283	-0.058235	-0.071832	-0.025340	0.064277	0.005544	-0.012646	-0.035482	-0.077931	0.167825	-0.013434	0.053548	0.020599	0.038101	-0.028255	-0.089432	0.084081	0.005839	0.097767	0.112962	-0.150174	0.106732	-0.134184	-0.148933	-0.078724	0.103795	-0.166269	-0.077102	-0.017779	-0.078961	-0.099545	-0.107755	0.064362	0.132766	-0.001837	0.242212	0.056676	0.073373	-0.102594	-0.059762	-0.145627	0.009052	0.047844	0.095057	-0.039505	-0.079985	-0.125314	-0.152079	0.047204	0.074628	0.087080	-0.151372	0.083494	-0.156326	-0.162284	-0.051542	-0.096896	-0.136762	-0.148028	-0.050469	-0.094450	-0.183501	-0.090239	0.052169	0.032584	-0.112270	0.018764	-0.101376	0.061527	0.049321	0.113515	0.107333	0.128938	-0.093451	0.008225	0.044773	-0.078311	-0.161212	-0.000384	-0.045921	0.006968	-0.071918	-0.048221	0.105080	0.028071	-0.044216	0.048445	0.175252	0.062697	-0.123873	0.033680	-0.044003	0.030863	-0.119032	-0.076105	-0.161326	-0.013468	-0.039225	-0.102881	0.193286	-0.126146	-0.168836	0.062628	-0.009285	-0.088051	-0.096776	0.134721	0.110065	0.018806	-0.016875	-0.071473	0.052005	-0.122898	-0.021145	0.056688	0.209591	0.193774	-0.025499	0.101622	-0.211115	0.021743	0.028513	-0.100692	0.014807	-0.001081	0.014639	-0.118802	0.005082	0.061123	-0.040472	-0.058976	-0.048586	0.117346	-0.064789	-0.071999	-0.076363	-0.109606	0.206851	-0.050020	0.093134	0.156459	-0.083007	0.043540	0.044056	0.064272	0.129667	0.150328	-0.038079	0.139340	0.115170	-0.027326	-0.103981	0.002808	-0.036977	0.110999	0.054293	-0.056067	0.068140	0.007546	0.081547	0.010934	0.022323	0.111649	-0.036277	-0.082351	-0.096421	-0.054622	-0.053567	-0.122108	0.099157	0.028324	-0.063418	0.002077	0.030880	-0.135006	0.077828	0.028506	0.151806	-0.048658	-0.086372	-0.009266	0.066991	-0.011050	-0.100152	-0.076279	0.052180	-0.007786	-0.005262	0.019791	0.161120	0.060247	0.011813	-0.002098	-0.029142	0.194002	-0.023440	-0.020473	-0.051820	0.058012	-0.095879	0.024765	-0.000855	-0.104565	-0.115436	-0.119301	-0.016675	-0.027094	0.143618	0.053202	-0.047500	0.047235	-0.181473	0.026993	-0.042640	
0.221949	-0.059198	0.117196	0.070933	0.170982	-0.024512	0.070430	0.002274	-0.049736	-0.137667	-0.090545	0.132616	-0.003052	-0.116888	0.011271	0.017621	0.101825	-0.042771	0.006852	-0.032122	0.040894	-0.114146	-0.070885	0.047155	-0.014661	-0.055211	-0.156157	-0.039620	0.045829	-0.030318	-0.095707	-0.168484	-0.002632	0.076678	0.019570	-0.050433	-0.032991	-0.139389	-0.137620	0.062341	-0.050256	0.051599	0.097786	-0.081209	-0.100496	0.140449	0.122754	0.017575	0.055731	-0.128239	-0.039927	-0.053411	0.035262	-0.021869	0.012714	0.045109	-0.091423	-0.087080	-0.091994	-0.073921	0.107271	0.048087	0.157310	-0.030953	0.092480	0.193078	0.000589	-0.134231	-0.001025	0.110078	0.065757	-0.001409	0.079424	0.040762	0.007491	-0.117749	-0.064602	0.038304	-0.017504	-0.146357	0.087357	0.161594	0.182866	0.022809	-0.105399	-0.120106	-0.058804	-0.205063	0.080769	-0.107656	0.054778	-0.176596	0.070479	0.018605	-0.086051	-0.061872	-0.066096	0.069015	0.097111	-0.021648	-0.080704	-0.101250	-0.043587	0.055433	0.108475	-0.030480	0.019791	0.055607	-0.068246	0.015016	-0.155849	-0.071962	-0.031986	0.047984	-0.121856	0.104718	-0.030376	-0.212084	0.017099	0.154848	0.096234	0.135767	-0.087508	-0.055796	-0.053300	-0.187696	0.101130	-0.172473	-0.044048	-0.153630	0.029034	0.113808	0.247134	0.045151	0.150316	0.037767	-0.127323	0.096336	0.071584	-0.039661	-0.081235	-0.266520	0.061961	-0.057206	0.122440	0.057749	0.086035	0.173682	0.106016	0.111140	0.067083	0.165652	-0.036969	0.003045	0.094221	0.048544	-0.031758	-0.151698	0.141965	-0.038734	-0.070120	0.107157	0.211821	-0.038831	0.099187	-0.012594	-0.080645	-0.071771	-0.012514	-0.079683	-0.115238	0.024670	-0.117673	0.150070	-0.080282	0.003798	-0.130244	0.115828	0.110801	0.069173	0.069288	0.042911	-0.183125	-0.031831	-0.121373	-0.049748	-0.044493	-0.107560	-0.020199	-0.001411	0.008716	-0.025108	-0.079268	0.118829	-0.099551	0.152521	-0.052874	-0.058128	0.077842	-0.177258	0.059297	-0.028132	-0.017465	0.146848	0.089777	0.107762	-0.021590	0.158925	-0.074461	-0.002114	0.070074	0.119802	0.083237	-0.024556	-0.071134	-0.032858	0.137010	0.154226	0.161831	-0.021571	-0.122855	0.035021	0.061093	-0.096230	0.007089	0.039178	0.058508	0.190035	0.137833	0.104867	0.065201	0.125011	0.214056	-0.167297	0.056013	0.113689	0.150829	0.069070	0.101709	-0.025256	-0.071144	0.224396	0.066948	-0.032401	0.141016	0.102645	0.078244	0.007650	-0.057402	-0.041679	-0.142453	0.088563	0.021096	0.167785	0.016697	0.047102	
-0.034782	-0.136907	-0.112031	-0.019770	-0.028715	-0.029809	-0.123155	0.068035	-0.090942	-0.025862	-0.063826	-0.043964	0.020605	0.021624	0.041993	-0.022418	-0.070396	-0.090666	-0.142452	0.117136	-0.151269	0.116761	-0.140661	-0.107152	-0.010260	-0.007593	-0.092378	0.011641	0.065545	-0.041380	0.031864	0.004675	-0.118628	0.035661	-0.207788	0.004707	-0.038724	0.166873	-0.102945	-0.147235	0.005024	-0.099152	0.091831	-0.014984	0.197647	0.015385	0.049269	0.067631	-0.085049	-0.116961	-0.139092	-0.006062	-0.095105	-0.005665	-0.019055	0.044819	0.032801	0.032736	-0.079606	0.073930	-0.042474	0.069724	-0.070309	-0.038118	0.080292	0.126780	-0.149621	-0.059676	0.085918	0.004523	-0.070646	0.018188	-0.057388	0.101160	0.132506	-0.083157	0.043162	-0.147029	0.148885	-0.001250	0.087733	0.141860	0.082759	0.024872	0.030321	0.040236	-0.002005	0.026120	-0.018064	0.188497	-0.087910	0.104648	-0.050301	0.131184	-0.026005	0.064307	-0.019368	-0.054065	0.055151	0.167862	-0.081744	-0.069462	0.069467	-0.047234	0.026192	-0.095201	0.087485	-0.026497	0.057574	0.019331	-0.074826	0.021279	0.042222	-0.020059	-0.110373	0.085735	0.047384	-0.026197	-0.042829	-0.166280	0.061698	-0.069564	0.016403	-0.110511	0.158204	0.080435	-0.104796	-0.065681	-0.036992	0.132099	-0.045338	-0.182505	-0.202664	0.014780	0.032797	-0.086877	-0.041459	-0.062725	-0.137403	-0.034974	0.018795	0.086333	0.075351	0.026373	0.075143	0.079420	-0.132359	-0.039684	0.045419	0.015172	0.028772	0.085159	-0.051840	0.077170	0.005933	-0.005039	-0.088357	-0.011477	0.003979	-0.078441	-0.031720	0.107815	0.124548	0.071658	-0.108756	-0.070237	0.012536	0.020774	-0.140395	0.131544	-0.124558	-0.009368	-0.078758	-0.050497	0.052411	-0.152159	-0.075359	0.002725	-0.112801	0.130398	-0.050159	-0.088066	-0.079797	0.038510	-0.080497	-0.070960	0.077517	0.134570	-0.143564	0.110687	-0.100167	-0.042235	0.078131	0.151347	0.130434	-0.084088	0.089155	-0.089184	0.043563	0.097825	-0.085881	-0.075325	0.044105	0.136835	-0.060634	-0.010661	-0.095340	-0.019644	0.144395	0.256733	0.112415	-0.007154	-0.039666	-0.224681	-0.010189	0.054097	0.003701	0.027707	-0.004502	0.062910	-0.030274	0.143487	0.033811	-0.108859	0.095005	0.099146	-0.039137	-0.114440	0.052234	-0.167410	0.121790	-0.022786	0.006574	0.023763	-0.021080	-0.027203	-0.048235	0.087311	0.085934	0.073323	-0.079351	0.024007	-0.024210	0.110704	0.122026	-0.080721	0.163061	-0.054940	0.108105	-0.042641	0.145649	0.142150	0.002853	-0.061838	-0.145460	0.066370	
0.117803	-0.073578	0.049390	0.104618	0.162122	0.048716	0.200412	0.103944	0.177509	-0.041310	0.152999	-0.058723	-0.145919	-0.063199	0.008320	0.022423	-0.013531	0.139009	0.010771	0.151012	0.049971	0.053995	0.081209	-0.005968	0.306513	0.114903	0.134042	-0.133888	-0.059756	-0.001856	-0.083061	0.030645	0.045348	0.120445	0.079878	-0.016043	0.060731	0.004701	0.099122	0.133224	0.035655	0.058776	-0.003787	0.019006	-0.029756	0.147728	-0.130909	-0.077736	-0.005557	0.004331	0.038618	0.031251	-0.128724	-0.123830	0.023445	-0.085525	-0.176131	-0.016239	-0.126671	-0.111526	0.021587	0.085156	-0.112257	0.023729	0.039041	-0.207459	0.072235	0.039300	0.085757	0.178747	-0.117433	-0.023013	-0.088101	0.071818	-0.126120	-0.062569	-0.177531	0.096669	-0.062867	-0.028501	-0.129029	-0.059858	0.119955	0.043638	0.059142	-0.148926	-0.067093	0.056377	-0.192249	0.079903	-0.165174	0.081233	-0.029920	0.011989	-0.171575	-0.128862	0.057965	-0.062670	0.092176	0.160476	-0.120193	0.060686	-0.075972	-0.110464	-0.137285	0.093570	-0.051178	-0.021668	0.098343	0.059738	0.105784	0.122073	0.112003	-0.053210	-0.082996	0.212646	-0.068203	0.012385	-0.045223	0.130332	-0.134834	0.109603	0.004067	0.103803	0.077739	0.014566	0.012103	0.094194	0.092713	-0.052281	0.176962	0.096042	-0.033435	0.173907	0.013168	-0.026019	0.055348	0.126322	-0.112496	0.043041	-0.129674	-0.133914	0.086085	0.014025	0.080791	-0.114393	0.117512	0.161009	-0.138416	0.014478	0.095222	0.118437	0.054032	0.047770	0.007007	-0.019358	0.177825	-0.108699	0.018055	-0.084361	0.007779	0.023299	0.031370	0.213899	0.049620	-0.034264	0.071152	-0.004122	-0.070841	-0.006493	-0.048551	0.070524	0.071941	0.134856	0.073279	-0.042919	0.082978	0.014324	0.088051	0.097237	-0.032468	-0.075193	0.090580	0.005803	0.084424	-0.064278	-0.069953	-0.019267	0.046535	-0.067746	0.081210	-0.043678	0.198602	-0.026056	-0.105918	0.100159	-0.016291	0.073286	0.047869	-0.128330	-0.085449	-0.053948	0.039118	-0.012507	0.099610	-0.077176	0.139642	0.067189	-0.057415	-0.194694	0.039453	-0.057227	-0.082098	-0.070630	-0.042595	-0.074595	0.007540	0.109108	-0.108433	0.055704	0.116867	0.129514	0.013299	0.062236	0.010857	-0.128916	0.088753	-0.115858	-0.128100	0.065554	0.008813	-0.110189	-0.135051	0.053374	-0.007288	-0.057933	-0.089232	-0.074607	-0.020980	0.110346	0.063790	0.001404	-0.118723	-0.035457	-0.041066	0.001958	-0.109243	-0.087795	0.046335	0.003927	0.087370	-0.014531	0.125261	0.067271	0.130058	-0.126788	
0.106980	0.044196	0.066738	0.097550	-0.085125	-0.085026	0.144363	0.091284	0.118747	0.024034	0.024462	0.062376	-0.005692	0.084806	0.108499	-0.111039	-0.028975	0.108835	0.003314	-0.132910	-0.050652	-0.018247	0.101305	0.036764	0.062678	-0.005266	-0.053710	-0.062887	-0.050350	0.009016	-0.054717	-0.128091	-0.170348	-0.009421	-0.134707	0.113339	-0.061774	0.053702	-0.092862	-0.118814	0.013083	0.037889	-0.031392	-0.046609	-0.053348	0.009604	0.000234	0.280276	0.041790	0.169824	-0.216161	-0.014713	-0.036173	0.013109	-0.076701	-0.002906	-0.112485	-0.180314	-0.016238	-0.089227	0.107786	0.145051	0.202273	0.093751	-0.092269	-0.026782	-0.165919	0.066428	-0.055092	0.086593	0.105809	0.180855	-0.003200	-0.023842	-0.035033	0.008905	-0.163470	0.087153	0.059106	0.068276	0.058255	-0.033891	-0.098908	-0.027879	-0.083949	0.011140	-0.065224	0.024663	-0.038877	0.105116	0.040266	-0.074082	-0.207449	0.068094	-0.089088	-0.087566	0.129044	-0.067480	-0.009997	0.139057	-0.025275	0.061275	0.059208	0.027019	-0.107034	0.063403	0.093995	0.173818	0.128451	-0.012695	0.056236	-0.000221	-0.073569	0.134642	-0.051333	0.143759	-0.092347	0.064890	-0.033562	-0.012171	-0.112634	0.058123	-0.073302	-0.001722	0.166893	0.165068	0.078035	0.064130	0.101631	0.067411	0.008249	-0.041049	-0.077814	0.085900	-0.029781	0.090656	-0.076674	0.117672	0.030246	0.208173	-0.021525	-0.065620	-0.025729	-0.096068	-0.125345	-0.040198	0.042808	0.078059	-0.125238	0.143902	-0.121396	-0.034945	-0.040712	0.004518	0.122636	0.101502	0.083051	0.100263	-0.012569	0.045494	0.155805	0.095275	0.038019	0.183749	-0.040477	-0.065579	-0.088783	-0.140336	0.152918	-0.180359	0.044787	0.047195	0.063264	-0.037973	-0.092553	0.006299	0.097866	0.015251	-0.014125	0.093624	-0.066687	0.024236	0.169494	0.071138	-0.081931	-0.181381	-0.058184	0.092119	-0.070673	0.121808	0.021824	-0.171901	0.047077	0.087901	-0.257677	0.051217	0.021650	-0.008722	-0.018262	0.131463	-0.149673	0.009245	-0.058769	0.067185	0.149567	0.056493	-0.035328	-0.010611	0.221298	0.107695	-0.017818	-0.079137	0.017253	-0.134516	0.042061	-0.122910	-0.028583	-0.071737	0.230196	0.031207	-0.131021	0.027706	0.189218	-0.120059	0.010707	-0.025011	0.112137	-0.035858	0.139881	0.100585	-0.001943	-0.026704	0.065126	-0.158902	-0.050501	0.119498	-0.010382	0.136657	0.052269	0.025468	0.035432	0.090440	0.150365	-0.185458	0.122376	-0.125497	0.054185	0.079859	-0.028886	-0.117567	-0.095335	-0.035995	-0.057348	0.052452	0.038994	-0.012553	
-0.034713	-0.033208	-0.075243	0.001476	0.003027	0.095967	-0.122661	-0.030323	-0.148279	0.003401	-0.039182	-0.102871	-0.130220	-0.011349	0.049609	0.022417	-0.058359	0.071081	-0.027630	0.008309	0.030155	0.201118	-0.115834	-0.149444	-0.140221	-0.184853	-0.173481	0.156430	0.026414	0.009720	0.056785	-0.059959	0.127070	0.085882	-0.122205	0.006939	0.068303	-0.185251	0.076598	-0.097760	0.087235	-0.013976	-0.097177	0.209484	0.103285	-0.165746	-0.091574	-0.086148	0.173033	-0.044349	0.175244	-0.068520	0.154543	-0.064863	-0.009692	0.134582	0.207726	0.069832	-0.006529	-0.064803	-0.172340	0.068095	-0.099264	-0.068531	-0.111657	0.206044	0.005056	-0.082416	-0.172210	-0.117772	0.086339	-0.045383	0.078725	-0.151416	0.155569	0.006078	0.011716	0.006065	0.001657	0.173731	0.131086	0.005527	-0.037472	-0.054101	0.107314	-0.021533	-0.117373	0.144573	-0.091583	-0.135077	0.177565	0.018980	0.137170	0.173681	0.219158	0.040008	0.018860	-0.119575	0.051434	-0.147248	0.094407	-0.113133	-0.071182	0.134433	-0.270538	-0.101531	-0.174543	-0.086692	-0.132990	0.059179	-0.019930	-0.041720	0.001767	-0.168788	0.142863	-0.078109	-0.091194	0.033591	-0.136283	0.010336	-0.002823	0.016324	-0.023806	-0.026093	-0.126530	0.052042	0.085650	0.053048	0.089615	0.010705	-0.076478	0.079775	0.140405	-0.046848	0.073028	-0.016338	-0.111740	0.009514	0.046698	0.261596	0.070967	0.160477	0.003075	0.099974	-0.153988	0.144729	-0.081497	-0.095126	-0.054915	-0.117994	-0.052619	0.039316	-0.052215	-0.003926	-0.198017	0.057670	0.215654	-0.056557	0.149350	-0.033000	0.123096	-0.182287	-0.063115	-0.155557	0.133834	-0.021396	-0.067575	0.043825	0.038710	-0.106392	-0.115383	-0.085919	-0.067782	-0.066689	0.152383	-0.035153	-0.175591	-0.044757	0.092180	-0.263300	0.113808	-0.034818	-0.109126	0.107442	-0.096930	0.092390	0.073617	0.016255	-0.076657	-0.083646	0.155132	-0.055957	-0.174900	0.038447	-0.024530	-0.045378	0.129717	-0.144002	0.001592	-0.091603	0.059353	-0.160324	-0.008860	0.162246	0.155433	0.149919	0.171732	0.065499	-0.053617	0.213626	0.009089	-0.140377	0.021632	-0.157912	-0.047268	-0.151768	0.012583	-0.205271	-0.032352	-0.043037	0.017957	-0.052405	0.019863	0.106877	0.030451	0.193436	0.019450	-0.076223	-0.016533	0.035081	0.165308	0.055177	0.166050	0.105057	0.017331	-0.019206	0.038204	-0.110112	-0.139635	0.077128	0.016910	0.043221	-0.112705	0.023838	-0.072071	-0.044915	-0.015654	0.014024	0.116871	0.143449	0.084843	0.026725	0.074397	-0.036947	0.010525	0.085475	
0.011140	0.083537	0.022835	-0.091086	-0.100280	-0.029840	0.112470	0.074511	0.091123	-0.071065	0.018143	-0.190289	-0.039090	-0.083401	-0.179023	0.115989	0.003300	-0.062819	-0.045201	-0.002399	0.012992	0.031110	-0.171220	0.083068	-0.006778	-0.142928	0.101665	0.153349	-0.012747	0.062485	-0.160045	0.051094	0.219344	-0.156341	0.030978	0.064527	0.146376	0.083875	0.024054	0.057564	0.048027	0.128989	0.096202	0.060558	0.159952	-0.235505	-0.063299	-0.072630	0.035771	-0.066492	0.172725	0.030013	0.187872	-0.092472	0.155052	0.161525	0.166147	0.046733	0.032001	0.040227	-0.061282	-0.136478	-0.063389	-0.039220	0.031009	0.152817	-0.051605	-0.118012	-0.120706	-0.196271	-0.048510	-0.009903	-0.054724	-0.141223	-0.069509	0.101304	0.064890	0.059916	0.004753	0.052690	-0.047279	-0.241420	-0.091154	0.092604	-0.138593	-0.025985	-0.022608	-0.019333	0.043670	0.075898	0.023342	-0.008090	0.028175	0.074220	-0.074630	0.115099	-0.078823	-0.071575	-0.056443	-0.184387	0.116389	-0.178036	-0.148163	0.089668	-0.104364	0.151572	0.054881	0.045300	-0.035177	-0.015627	-0.088759	-0.137528	-0.142835	0.029290	0.155235	-0.150759	-0.071488	-0.065906	-0.138220	-0.075338	-0.122224	0.124069	0.105511	-0.098214	-0.139610	0.054791	-0.033728	0.129975	-0.087749	0.036131	-0.098595	0.001894	-0.193122	-0.066873	-0.165678	0.062891	-0.119408	-0.151626	-0.063749	0.095782	0.127745	-0.005164	-0.036652	-0.125037	-0.026529	-0.105258	-0.138046	-0.132144	-0.024512	-0.112811	-0.174006	-0.030098	-0.226362	0.112475	-0.067524	-0.046626	0.149062	-0.107424	0.082843	0.049543	-0.216563	0.086586	-0.189886	-0.124030	-0.193089	-0.065919	-0.100477	0.065084	-0.155823	-0.089434	0.000987	0.011035	-0.104436	-0.159056	-0.023781	0.005777	0.008368	-0.055011	-0.087831	-0.118667	-0.142574	0.143337	-0.066433	-0.078007	-0.000998	0.059659	-0.023093	-0.002708	-0.029676	0.043818	0.037656	0.126292	-0.087413	-0.018379	0.131585	-0.084119	-0.012113	-0.103988	0.104538	-0.129918	0.146559	-0.132205	-0.045682	0.103853	0.119856	0.008748	-0.025746	0.086687	0.095937	0.117340	0.054318	-0.066366	0.113941	0.017037	0.013225	-0.081189	0.138104	0.017948	0.023242	-0.014515	-0.021856	-0.036911	-0.015089	-0.063257	-0.054414	-0.021786	-0.061485	-0.012050	0.030238	0.067635	0.101191	-0.087000	0.171206	-0.000084	0.044838	-0.018416	-0.022148	0.013297	-0.229318	0.086923	-0.019716	0.074367	-0.127171	0.004968	-0.091961	0.009428	0.089266	-0.080870	-0.055114	0.088028	0.050186	0.156242	0.099570	0.034728	-0.088315	-0.096189	
-0.014663	0.079735	0.136549	-0.231738	0.047833	-0.118197	-0.048850	0.055730	0.089802	0.040734	-0.073421	-0.139197	-0.042307	-0.219526	-0.108070	-0.047525	-0.023650	0.078595	0.044487	-0.166668	0.131084	-0.134875	-0.116411	0.024726	-0.017726	-0.043472	0.027477	-0.036747	-0.012127	0.082740	0.010419	0.082638	0.047825	0.042270	0.085261	-0.091409	0.059160	-0.115209	-0.030675	0.122328	0.166873	0.253240	0.065615	-0.043786	-0.094863	-0.140699	0.012546	0.048657	-0.061461	-0.014265	0.156417	-0.138149	0.188080	-0.009542	-0.003377	0.156347	0.044125	0.022546	-0.041118	-0.037330	0.087182	0.109473	0.034653	-0.021811	0.148316	-0.083170	0.150848	-0.024011	0.060540	-0.100868	0.084722	0.053205	0.134183	0.056523	-0.067213	0.226778	-0.001939	-0.193550	0.091937	0.201761	-0.004698	-0.318628	0.025960	-0.045882	-0.103726	0.135828	0.095438	0.106925	0.074645	0.105282	0.047373	0.014702	-0.067053	0.102011	0.046735	0.074678	0.021991	-0.091145	0.114661	-0.206448	0.054887	-0.003693	-0.197299	0.333912	-0.020826	0.168769	0.003968	-0.053564	-0.231522	0.063934	-0.013429	0.075488	-0.083704	-0.205106	0.201279	-0.039316	0.194363	0.017472	-0.147245	0.022630	0.016652	0.122447	-0.102376	0.047616	-0.196751	0.064907	-0.086763	0.079412	-0.035945	-0.025290	0.135555	0.202818	-0.038237	-0.128189	0.080003	0.130346	-0.002102	0.164052	-0.090005	-0.098816	0.003155	-0.106719	-0.113993	0.154755	-0.040675	-0.088436	0.096798	-0.076839	0.110523	0.097706	-0.139743	0.052108	-0.096535	0.130852	0.091818	0.078846	0.052782	0.071614	0.097379	-0.101805	0.000636	0.034468	-0.183393	-0.069235	-0.011091	-0.064910	0.007355	-0.028699	-0.110343	0.069071	0.083286	0.122650	-0.117638	-0.081659	0.021883	0.224909	-0.121518	-0.000226	0.123950	0.019934	0.083219	0.029683	0.078126	-0.013872	-0.094589	-0.031411	0.109220	-0.076817	0.229193	-0.122170	-0.111350	0.021861	-0.064956	0.070773	-0.103951	0.022145	0.185971	-0.085707	-0.078158	-0.074560	-0.054152	0.140501	-0.017477	0.088188	-0.227473	-0.083592	-0.040386	0.070964	0.020771	-0.024016	-0.054052	0.166291	0.119464	0.033701	0.199752	-0.105122	0.086892	0.091992	0.034845	-0.048127	-0.122135	-0.151611	-0.064777	0.155833	-0.069820	-0.063992	-0.098620	0.000870	0.020484	-0.138009	0.036291	0.031065	0.073498	-0.041481	0.245101	0.057979	-0.075401	0.060668	-0.131592	0.058612	-0.081952	0.111198	0.054071	0.030303	0.089153	-0.121657	0.084629	0.205501	0.005707	0.161590	0.128210	0.016458	-0.007412	-0.036751	-0.203935	0.080383	
0.007343	-0.054446	0.047046	0.104598	0.058863	0.047712	0.050650	-0.049761	0.146759	0.094256	-0.003979	0.034856	-0.059975	0.106551	0.186963	0.030565	-0.036879	-0.028959	-0.103153	0.114462	-0.070979	0.031827	0.135928	-0.040937	-0.039674	-0.039202	0.116882	-0.062389	0.022093	0.039974	0.073847	-0.122148	0.073513	0.024378	-0.113812	-0.012638	0.113700	-0.104341	-0.117687	-0.059774	0.060346	-0.097004	0.070006	0.177300	-0.158270	0.050891	0.079284	-0.063439	-0.137416	0.086440	-0.039237	-0.020881	-0.034469	0.012332	-0.139781	-0.088802	-0.250698	-0.061887	0.088752	-0.067918	-0.088162	0.095685	0.066464	-0.038178	-0.153997	0.192134	-0.008598	-0.075876	0.094427	-0.158396	0.020472	0.075803	-0.096793	0.001253	0.048188	-0.078903	0.031004	-0.007406	-0.093093	-0.199394	-0.035392	0.020633	0.187168	-0.045449	-0.014470	0.105838	0.068008	-0.051201	0.273531	-0.095050	0.121031	-0.141013	0.072128	-0.030126	-0.091794	-0.007676	-0.013932	0.001052	-0.025658	-0.171376	-0.207976	0.181116	-0.080480	0.027361	-0.007053	0.140566	0.023894	-0.108515	-0.069012	-0.125950	0.045475	0.031013	0.102982	-0.148461	-0.207851	0.070338	-0.131148	0.092556	-0.105823	-0.150116	-0.280942	0.116228	-0.207107	0.026846	0.029742	0.069659	-0.026111	-0.086926	-0.059950	0.083435	0.100512	-0.004889	0.138731	0.053524	0.046947	-0.060791	-0.030389	0.087896	0.036369	0.166548	-0.000692	0.111744	-0.192902	0.183759	-0.015406	0.083384	0.133268	-0.163159	0.218431	-0.138261	-0.170455	0.079232	0.070026	-0.007222	-0.033150	-0.005167	-0.033841	0.184254	0.095653	0.176944	0.105196	-0.133993	0.020231	-0.065373	-0.174073	-0.066595	0.082340	0.060096	-0.144437	0.085536	-0.008631	0.025262	0.076504	-0.254676	0.113351	-0.020232	-0.015422	-0.220832	-0.225716	0.042578	0.064274	0.046935	0.013657	-0.027547	-0.105631	0.032785	-0.036238	-0.080446	-0.012826	-0.103812	0.147803	0.092841	-0.094390	0.000842	0.140176	-0.015824	-0.026882	-0.133611	-0.012672	-0.020847	0.021241	-0.083813	0.005151	0.278174	-0.089876	0.024281	0.049191	0.008150	0.212851	-0.092994	-0.050592	0.092125	-0.125912	-0.073427	0.226660	0.015749	0.218669	0.187902	0.079626	0.004684	-0.081577	0.076140	0.153130	-0.100137	-0.024628	0.050315	-0.063098	-0.033230	-0.029626	-0.082520	-0.113595	-0.078652	-0.093150	-0.042812	-0.059804	-0.022899	-0.048354	0.055482	0.036741	-0.012659	0.125834	0.058000	0.076508	0.021806	0.096211	-0.049658	-0.160150	-0.092659	0.229889	-0.023294	0.019004	0.030943	-0.063139	0.157842	0.038826	0.052455	
0.021730	-0.095746	-0.002775	0.010958	-0.077644	-0.054593	0.085581	-0.049458	0.028485	0.134964	0.194693	0.074768	0.060337	-0.185706	-0.040494	0.191464	0.070994	0.033262	0.010916	0.041576	0.100752	-0.032517	0.126551	0.018827	0.148350	0.137551	0.089611	-0.107619	-0.038959	-0.006391	-0.119049	0.067878	0.071040	-0.071409	0.125941	-0.103419	0.038769	0.189925	-0.044762	0.015510	0.000148	0.100788	0.147958	-0.140952	-0.059373	-0.015708	0.014101	0.002637	-0.137042	0.018782	0.129718	0.023200	0.034358	-0.113038	-0.004871	-0.120017	0.111940	-0.204223	0.070832	0.005514	0.122103	0.159658	0.055452	-0.046383	0.106861	0.157449	-0.104804	-0.021203	0.072189	-0.133754	0.126074	0.122637	0.057293	-0.004245	0.091584	0.116565	-0.065095	-0.103400	0.151235	0.040131	0.046741	-0.012811	0.017317	-0.087149	0.032981	0.034159	-0.046865	0.153943	0.198232	0.072421	0.065499	-0.032259	0.016607	-0.109891	-0.133360	-0.060591	0.101493	-0.006375	-0.165332	0.147005	-0.003903	0.135165	0.017741	0.001453	0.097391	0.018124	0.017006	0.001117	-0.045524	0.081303	-0.095475	0.163344	0.160531	0.077384	-0.230984	0.035487	-0.008149	0.029715	0.136633	-0.131797	-0.120552	-0.100410	-0.100606	0.083224	0.038983	0.087657	0.101622	0.099288	-0.049643	0.098469	0.071654	-0.020288	-0.139900	-0.008914	-0.111494	0.009771	0.019873	-0.054710	-0.087095	-0.000414	0.019375	0.067702	0.111895	-0.052168	0.141832	-0.037615	0.121182	0.063445	0.091645	-0.110685	0.095365	0.009768	-0.043961	-0.194847	0.150305	0.190292	0.046698	0.060400	0.065054	-0.010885	0.041854	0.010835	0.016323	0.148970	-0.141629	-0.130812	0.072083	0.093864	0.041796	0.098149	-0.085593	0.168608	-0.066716	0.063141	-0.114531	0.055597	0.149954	-0.050714	0.039384	0.152312	0.137684	0.182400	-0.044214	-0.090932	0.080974	-0.039587	0.068470	0.258643	-0.008070	0.131048	-0.057976	0.032796	-0.134346	0.115902	-0.107552	-0.064276	-0.235870	0.034462	-0.087394	-0.131048	0.094012	-0.079087	-0.105438	0.156914	0.113986	-0.031810	-0.157411	0.019144	-0.001787	-0.032455	0.002380	-0.124487	-0.054204	0.030311	0.038138	-0.055254	-0.071258	0.097089	0.041463	0.078752	-0.015823	-0.080039	0.073509	-0.076608	0.159276	0.019313	0.056055	0.040883	0.032288	-0.189902	0.092891	-0.061604	0.068622	0.109602	0.074366	-0.139244	0.033701	0.028684	0.001623	-0.061740	0.148856	-0.092908	0.167615	0.103939	0.018077	0.090376	0.027673	0.018784	0.068796	-0.073901	-0.060654	0.024183	-0.033236	0.137175	-0.062096	0.032614	
0.030949	-0.163400	-0.024980	0.051692	0.055424	0.005343	-0.006122	0.006877	0.073535	-0.059548	-0.130178	-0.034468	-0.042327	0.021204	-0.033285	-0.008031	-0.063889	0.084833	0.085451	-0.088652	-0.085918	0.018755	-0.084414	-0.072028	0.054949	0.021008	-0.041351	-0.081414	0.021679	0.091053	-0.017648	0.077806	0.033171	0.053663	-0.015405	-0.011473	-0.070648	-0.162241	0.126217	0.063780	0.042086	0.127429	0.011230	0.027958	-0.033702	0.071707	-0.207735	0.089605	-0.162954	-0.059988	-0.011328	-0.203329	0.095944	-0.088223	0.090331	0.010907	-0.029247	-0.070887	-0.033700	0.080846	-0.211332	-0.007190	-0.081706	0.154994	0.126727	0.083806	-0.149278	-0.106841	-0.115123	0.039249	-0.150251	-0.134178	-0.141071	-0.112030	-0.115631	-0.004118	-0.022729	0.025033	0.079460	-0.045189	0.073174	-0.036604	0.036972	-0.099222	-0.039291	-0.091897	-0.107720	-0.159439	-0.062327	-0.066597	-0.121035	0.151286	-0.003057	0.017130	-0.132677	-0.041202	-0.136709	-0.016660	0.145005	-0.164350	0.144246	0.026057	0.058595	0.013512	0.084470	0.059943	-0.114022	0.045308	-0.089473	-0.162528	-0.023665	0.006260	-0.010286	0.115672	0.082196	-0.207596	-0.109051	0.040224	0.043578	0.005049	0.036790	0.008292	-0.000962	-0.063035	-0.087205	0.112277	-0.195777	-0.057908	-0.060876	0.083348	-0.135705	-0.026744	0.006684	-0.003974	-0.136269	-0.057651	0.007367	0.023740	-0.136710	-0.018537	-0.021848	-0.007355	-0.005744	0.085831	0.033341	-0.067856	0.039220	0.022692	-0.014553	-0.139026	-0.006203	0.162965	-0.071545	0.111348	-0.025582	0.014561	-0.212623	0.122464	-0.070357	0.044313	-0.061805	0.063469	0.067018	-0.108449	-0.067677	0.082718	-0.054669	0.139998	-0.000622	0.023142	0.144189	-0.139508	-0.246940	-0.118864	-0.040428	0.145974	-0.050582	-0.043294	-0.105249	0.056403	-0.056108	0.162744	-0.061567	0.035024	0.042656	0.022622	0.072904	-0.112333	0.142079	0.040397	0.009083	0.106739	0.001377	0.198419	0.058380	-0.185440	0.100525	0.086274	0.044340	0.035289	0.013287	-0.042347	-0.094337	0.054356	0.026720	0.068017	-0.228819	0.007442	-0.063912	0.115197	0.218132	0.075948	0.121618	-0.178708	0.118998	-0.079728	0.045702	0.008898	0.048361	-0.028257	-0.128548	0.011573	-0.093701	-0.092621	0.013592	-0.012128	-0.097025	-0.016630	0.074722	-0.075114	-0.025579	-0.033793	0.082729	-0.024998	0.098634	-0.050631	-0.080661	-0.163914	-0.151015	0.180587	-0.059050	-0.104825	-0.082797	0.066014	-0.041410	-0.014886	-0.117706	-0.030841	-0.022832	-0.031065	0.014799	-0.040508	0.143943	-0.124405	-0.021097	0.026316	
0.087065	-0.062049	-0.007834	-0.127006	0.129591	-0.058353	0.075203	0.063813	0.067962	-0.006461	-0.117785	-0.102609	0.026365	0.060179	-0.144506	-0.028262	-0.071246	0.024457	0.077811	0.096780	-0.093318	-0.078720	0.141324	-0.033447	0.093438	-0.003576	0.078297	-0.123966	0.056159	-0.038109	-0.097577	0.061066	-0.039703	0.188391	-0.026769	0.005010	-0.238695	-0.010630	-0.078675	0.041952	-0.167246	-0.082152	-0.142756	-0.010369	0.109320	-0.064189	-0.045124	-0.040023	-0.064486	0.107609	-0.071249	0.126241	-0.114392	0.103811	0.010314	0.030031	-0.065401	-0.095655	-0.114924	-0.133832	-0.023362	0.059115	0.026192	-0.079665	-0.013698	-0.146325	-0.011516	0.033159	-0.004783	0.123501	-0.111085	0.162387	-0.110384	-0.086236	0.072415	0.169795	0.110232	0.137305	-0.013455	-0.015847	0.008470	-0.122785	-0.032309	-0.099498	0.030193	0.109760	-0.026136	-0.010538	0.098449	-0.023067	-0.035666	0.065711	-0.000657	-0.009932	0.001956	-0.050378	0.034676	-0.089920	-0.039758	-0.089271	-0.067405	0.073376	-0.101558	0.144346	-0.163814	-0.043707	-0.068272	0.025837	0.107414	-0.065546	0.191456	-0.029731	0.018662	0.084068	-0.063363	0.087918	0.047515	-0.119124	-0.058395	0.046299	-0.177383	0.028954	-0.114231	-0.126564	0.030007	-0.067218	0.058264	0.037851	0.120023	-0.039108	0.021684	-0.058104	0.100760	-0.148279	0.064802	-0.065902	0.062742	0.107763	0.029078	0.015970	0.044308	0.105892	-0.108004	-0.049232	-0.013212	-0.049903	-0.071171	-0.066221	-0.025476	0.093928	0.032707	-0.044518	-0.147833	0.126154	0.016662	-0.156921	-0.064575	0.086969	-0.018505	-0.021127	0.040739	0.089256	-0.140731	0.068637	0.154298	-0.059487	-0.045778	0.200821	0.051001	0.158800	-0.164409	0.090758	0.076025	-0.104110	-0.048658	-0.134111	0.117728	0.026756	-0.021463	0.135093	-0.082040	-0.004922	0.067913	-0.061371	-0.080610	0.120441	-0.118410	-0.097434	0.054464	-0.070024	-0.046537	0.161358	-0.049681	0.089424	-0.126804	0.009120	0.044691	-0.008944	-0.035772	0.073283	0.025651	-0.004977	0.112775	-0.178148	0.108437	0.058279	0.080000	0.064772	-0.042450	-0.092337	-0.243546	-0.064153	-0.078128	0.024094	-0.216453	0.076292	-0.177208	0.014068	0.028421	-0.130096	0.081124	-0.083552	0.120019	0.099706	0.038999	-0.060392	-0.077819	-0.063872	0.028727	-0.036933	-0.055802	-0.083869	0.051562	0.114152	-0.058396	0.144652	0.020508	-0.022592	0.010792	-0.134860	0.200572	0.021841	-0.029822	-0.093547	-0.031650	-0.099496	0.026921	-0.036761	0.042834	-0.081053	0.073974	0.146749	-0.006956	-0.052024	0.100381	0.090375	
0.174561	0.071510	-0.090520	0.014196	0.040028	-0.152422	-0.077208	-0.109224	-0.066372	-0.037570	-0.010353	-0.023255	-0.090252	0.074625	0.040038	0.012951	-0.070908	0.174371	-0.219625	-0.106886	-0.161429	0.068548	-0.228437	-0.205034	-0.079753	0.065695	-0.016089	-0.102964	0.024787	-0.078344	0.050375	0.115497	0.095418	0.128338	-0.238662	0.012724	-0.031136	0.019523	-0.122733	0.058071	-0.219372	0.001655	-0.127936	0.033539	0.098889	-0.003872	0.082941	0.009219	0.192280	-0.008246	-0.359964	0.092073	0.147226	0.293922	-0.141664	0.192811	-0.063775	-0.068060	-0.003368	0.075412	0.066475	-0.021372	0.188222	0.098154	0.114122	0.096011	0.152617	-0.073913	0.151727	-0.140350	0.030392	-0.007835	-0.100200	-0.095291	-0.067530	0.097628	-0.085244	0.013752	-0.089682	-0.113181	-0.152015	0.074145	-0.071071	0.047936	-0.072104	-0.112122	0.020186	0.005889	-0.083877	-0.026190	0.034563	0.108153	-0.128134	0.125046	-0.020459	0.156579	-0.068265	0.110723	0.066519	0.110707	0.131705	0.089476	0.036346	-0.048706	0.005459	-0.202071	-0.140128	0.008391	0.001601	-0.021495	-0.001577	0.017948	-0.043590	0.018227	-0.093971	0.112510	0.064107	0.011391	0.080820	0.020801	0.069419	0.099938	0.040127	0.105928	0.201063	-0.100446	0.094295	0.219210	0.080787	-0.027561	-0.056851	-0.075629	-0.061423	0.129909	-0.010717	0.004663	0.119482	-0.018678	0.147042	0.005887	0.072095	-0.063673	-0.061621	-0.055531	0.000415	-0.044565	-0.178894	0.161039	-0.234828	0.052090	0.029107	0.029677	0.018721	-0.111807	-0.185437	0.107335	0.135540	0.066018	0.042804	-0.138074	0.111658	0.056146	0.059421	-0.108608	0.103784	-0.051643	0.173710	-0.156980	0.059170	0.003663	0.004747	-0.006100	-0.057062	0.038550	-0.136215	-0.146736	0.161967	0.116360	-0.041098	0.009476	0.036115	0.020259	0.038463	-0.134326	0.108671	-0.108295	0.164203	-0.000420	-0.085589	0.269468	-0.069053	-0.126016	0.024350	-0.073922	-0.048228	0.206773	-0.138637	-0.032261	-0.065593	-0.043582	-0.176551	0.102623	0.052881	0.019580	0.056727	-0.020214	0.116907	0.015859	0.050858	0.034940	-0.054929	-0.072094	-0.137343	-0.047107	-0.214616	-0.100485	-0.161735	-0.243415	0.006802	-0.012485	0.134570	-0.082771	0.118834	0.070821	-0.073653	0.006149	0.068776	0.132430	-0.021954	0.086259	-0.156351	-0.056303	-0.117928	-0.221805	0.026300	0.026015	0.036979	0.024894	0.033389	-0.090220	0.039493	0.019812	0.089856	0.061722	-0.032592	0.047925	0.022545	0.071545	-0.118666	-0.070401	-0.032007	-0.094964	-0.074370	-0.108343	0.165409	-0.193639	
0.102905	-0.030967	-0.071183	0.031926	0.059954	0.157268	0.101701	0.050229	0.017397	0.157049	-0.125967	0.147126	-0.053675	0.027544	-0.165828	0.082254	0.202976	0.171855	-0.108845	0.074480	-0.114640	0.027286	0.140127	-0.159412	-0.083607	0.027990	-0.085644	0.185561	0.125717	0.035135	0.050639	0.026055	-0.044214	0.130275	0.030918	0.043875	-0.148191	-0.013073	0.058867	-0.106189	0.019026	-0.019936	0.029812	0.143389	-0.018795	0.080934	-0.018119	0.081145	0.058014	0.032531	-0.116011	-0.096370	-0.134530	-0.010435	0.026652	-0.217749	-0.133614	-0.126579	0.017347	-0.098293	0.045797	0.216110	-0.016761	-0.080951	0.043727	0.079017	-0.033823	-0.050835	-0.004664	-0.064607	-0.080299	0.031141	-0.085995	-0.076432	0.065591	0.072178	0.145073	0.057852	-0.027336	-0.072441	-0.066015	-0.042295	0.077907	-0.022854	0.160067	0.119056	0.050062	0.072951	-0.155576	0.009285	0.098298	0.040632	-0.071366	-0.105935	0.029253	-0.089283	-0.088417	0.061050	0.005812	0.082581	-0.261736	0.154513	0.030746	-0.016579	-0.095751	-0.042424	0.050754	-0.015893	0.077042	0.177367	0.172819	-0.091103	-0.049657	-0.061255	-0.247966	0.142814	-0.032019	-0.015826	-0.042513	0.082588	-0.077212	-0.180197	-0.095574	-0.001159	0.202647	0.012472	0.078789	-0.111007	-0.044042	-0.022863	-0.100060	0.027595	-0.005715	-0.078673	0.137475	0.028785	0.025784	-0.068611	0.058808	0.187278	-0.048770	0.041678	0.095242	-0.086111	-0.072617	0.070675	0.111767	0.049042	0.031400	0.119129	0.161507	-0.068786	0.046637	0.083926	0.044687	0.140652	0.169915	0.057837	0.084007	-0.066861	0.054424	-0.071722	-0.202407	-0.042076	0.079535	-0.052326	-0.117545	0.118641	-0.181999	0.029317	-0.130602	0.140761	0.218225	0.072042	0.040629	-0.161743	0.011001	-0.146084	-0.011872	0.006096	0.070296	-0.009325	-0.045307	-0.131097	0.013391	0.027983	0.036527	-0.041606	-0.159236	-0.174350	0.120475	0.035686	-0.132926	-0.081321	-0.041605	0.180211	0.017751	-0.080013	-0.157006	0.097641	0.109825	0.010295	-0.021640	-0.027446	-0.008922	-0.096672	0.061436	-0.025201	0.171747	-0.180310	-0.090765	-0.081684	0.000191	0.008405	-0.115018	-0.013892	0.033292	0.141995	-0.084752	0.021376	-0.036301	-0.031191	0.038266	0.126479	-0.003828	0.009114	0.149950	-0.089677	-0.048510	-0.011010	-0.059693	-0.174406	-0.188495	-0.159414	-0.121680	-0.054098	-0.110951	0.068783	-0.000424	0.016419	0.089931	-0.079335	0.033292	-0.172731	-0.017797	-0.014720	-0.253158	0.060852	-0.002201	-0.087220	-0.060509	-0.044117	-0.194930	0.044420	0.003317	0.025276	
0.012810	0.103353	0.138296	0.031020	-0.037031	0.028924	0.045384	0.080813	-0.074762	0.094679	0.041927	-0.008305	-0.124286	0.067649	-0.026577	0.007799	-0.106682	0.121811	0.058538	0.068181	0.039996	-0.026842	-0.042059	0.112902	0.090671	0.104547	-0.125146	-0.072061	-0.146222	0.067842	-0.091375	-0.024425	-0.080588	0.018401	0.000088	0.010895	-0.083659	0.104439	0.001758	0.027090	0.032986	0.018364	0.035269	-0.146519	0.046199	-0.051134	0.140955	0.005972	0.056750	0.037103	-0.053037	-0.067662	-0.065792	0.016969	0.099134	0.013733	0.085825	0.094208	0.007795	-0.061904	0.052870	-0.022455	0.104150	0.099320	-0.064772	-0.213290	-0.009309	0.076118	-0.049898	0.129743	0.006698	-0.008563	0.039351	-0.022191	-0.003450	0.034255	-0.130423	0.067008	-0.009823	-0.014068	0.070478	-0.116322	-0.053421	-0.055712	0.087633	0.030451	0.114958	0.161500	-0.001744	0.075863	-0.060915	0.040436	0.134929	0.055255	0.031702	0.120465	0.163130	-0.063819	0.106068	0.055126	0.182455	-0.147303	0.041529	0.137370	-0.049665	-0.037480	0.046104	-0.020051	0.113981	-0.116533	0.033797	0.087449	-0.003269	0.040405	0.091716	-0.056963	0.039598	0.114814	0.077473	-0.109990	0.123505	0.031604	0.071421	-0.110836	-0.086891	0.065221	-0.019652	0.039864	0.100514	-0.072860	0.070469	0.096093	-0.082963	0.000934	-0.062724	-0.009435	-0.015443	0.024490	0.016174	0.010067	-0.088998	-0.017814	0.051459	0.048785	0.123435	-0.024501	-0.135676	-0.046136	-0.007420	-0.028255	-0.075196	-0.044283	0.021160	-0.075291	-0.066892	0.126410	0.150736	-0.095852	0.126993	-0.123625	-0.001364	-0.009658	-0.136137	0.034071	-0.043365	-0.065405	0.111943	-0.052583	-0.061204	0.116750	0.022025	0.049356	-0.021709	0.029275	-0.092202	0.055604	-0.011087	0.030229	0.113468	-0.122814	-0.143152	0.062167	0.148234	-0.032936	-0.009900	-0.024992	0.105920	0.082275	0.030913	-0.021488	-0.057836	-0.130433	0.033574	-0.122043	-0.006031	-0.109197	0.082800	-0.032170	0.139697	-0.033893	-0.055611	-0.000056	0.078793	-0.033006	-0.153544	0.053729	-0.090725	-0.062285	-0.073553	-0.144534	0.023243	-0.086691	0.095824	-0.032316	-0.010412	0.020267	-0.100296	0.084646	0.080828	0.059694	0.083016	0.082451	0.133097	-0.113217	0.006247	-0.004644	-0.042371	-0.001844	0.026406	0.053276	0.031075	-0.019583	-0.022002	0.146165	-0.084590	0.012324	-0.083840	0.001100	0.069354	-0.074481	0.108102	-0.145271	0.134213	0.135274	0.032932	-0.076014	0.034846	0.074159	0.088359	0.119732	-0.133650	0.046920	-0.071389	-0.129023	0.053755	0.050239	
-0.198382	0.002927	-0.081780	0.064676	-0.111808	-0.087884	-0.023825	-0.092394	0.042638	-0.032964	-0.131667	0.036205	0.012967	0.081076	-0.068905	0.123047	0.010919	-0.096774	0.059245	-0.094336	-0.202791	-0.093770	-0.001199	-0.143784	0.009476	-0.013804	0.072303	0.076710	-0.078340	-0.004764	-0.040405	-0.031425	0.112988	-0.119255	0.175800	-0.117834	0.157259	0.033620	-0.049569	-0.116624	0.026882	0.007491	-0.026747	0.087351	0.065032	-0.033505	0.078791	-0.159238	0.107801	-0.127158	0.185507	-0.043931	-0.128207	0.134246	-0.021581	-0.163189	0.088581	-0.035728	0.009500	0.088326	-0.069621	-0.011116	-0.014762	-0.004308	0.003154	-0.105927	0.242466	-0.025500	-0.038204	-0.031698	0.001000	-0.006961	-0.023075	-0.029475	-0.000439	0.029132	0.081758	-0.039804	-0.028267	-0.091708	-0.062536	-0.005679	-0.029722	-0.050950	0.057042	-0.035657	-0.145018	0.096781	-0.263697	0.049416	-0.047601	-0.033509	-0.039801	-0.067877	0.143006	-0.057684	-0.212635	-0.185545	-0.024413	-0.234994	0.034910	0.043677	-0.159340	0.179987	-0.225202	-0.027116	-0.136909	-0.234464	-0.243282	-0.010531	0.141180	-0.054162	-0.070101	-0.220156	0.101509	-0.083046	-0.004282	0.030426	-0.284236	0.158549	-0.121914	-0.113387	0.010253	0.019458	-0.085974	-0.030153	0.069474	-0.033075	0.017412	-0.017028	0.046956	-0.105007	0.006781	0.029285	0.024246	-0.006930	-0.075955	-0.067174	0.062035	0.086512	0.098604	-0.036068	-0.072131	-0.112760	-0.038197	-0.001765	-0.116887	-0.188612	-0.111289	0.119112	0.014682	-0.060248	-0.060568	-0.079615	-0.138935	-0.012396	0.080022	-0.118000	0.038140	0.038515	-0.164954	0.075394	-0.175316	-0.148488	0.043565	0.005112	-0.135965	-0.027421	-0.180382	-0.004877	-0.042147	-0.108772	0.078871	-0.073495	0.145493	0.086993	-0.017765	0.060996	-0.059292	-0.149276	-0.033259	-0.046164	-0.091271	-0.093641	-0.117665	0.142734	-0.035687	-0.031638	0.073332	0.024918	-0.047887	0.124945	-0.071462	0.146919	0.043689	0.146716	-0.020187	0.001743	-0.125611	-0.048492	-0.028248	0.030751	0.117916	-0.013341	0.122457	-0.083584	0.067696	0.012114	0.026612	0.097548	-0.004766	-0.067806	-0.118894	0.071306	0.018399	0.033311	0.060191	-0.067937	-0.015516	-0.096107	-0.044391	-0.132683	-0.100309	-0.075846	0.097219	0.225984	0.064360	0.062183	-0.126341	-0.102988	-0.035245	0.004375	-0.027585	0.088747	0.090427	0.093533	0.035185	0.093761	-0.116763	0.139079	0.067948	0.077509	-0.034575	0.190314	-0.085012	-0.073243	0.154198	0.119603	0.059184	0.113014	0.078765	0.110885	0.067219	0.040365	-0.091935	-0.077717	
0.098155	0.042745	0.054641	-0.016239	0.029762	-0.011975	0.043786	0.101571	0.179767	-0.094579	-0.018122	-0.127413	-0.150574	0.134325	0.088519	0.009266	-0.150291	0.069259	-0.111605	-0.161787	0.009214	0.026463	-0.064722	0.121314	0.024101	-0.072557	0.094739	0.004545	-0.035256	0.128096	-0.149619	-0.006936	-0.177137	0.098697	-0.013891	-0.051592	0.093888	-0.000991	0.072930	0.134780	0.010540	0.092158	-0.124906	-0.140695	-0.068658	0.012528	0.144101	-0.050795	-0.002103	-0.089422	0.141219	0.126187	-0.041984	0.122964	-0.105942	-0.076080	0.177860	-0.042068	-0.029674	0.032165	-0.128598	-0.197954	-0.113128	0.023441	-0.065717	-0.053780	0.090021	-0.039311	0.138197	0.092962	-0.090681	0.087315	0.117086	-0.096315	0.109989	0.122172	0.008466	-0.022468	0.079318	0.112470	-0.011709	-0.031161	-0.077388	-0.040642	0.074584	-0.030092	-0.056833	-0.050869	0.055623	-0.067547	-0.010089	0.019543	0.107415	0.008827	0.091720	-0.014154	0.013423	0.051836	0.046053	0.050565	0.071600	-0.016180	0.179398	-0.018308	-0.145818	0.044100	0.057820	-0.020033	-0.003192	0.017286	0.034617	0.042672	0.085550	0.031644	0.043430	0.072044	-0.000718	0.100715	0.012627	0.062651	0.037392	0.079592	0.005738	0.006107	0.072214	-0.026684	0.058397	0.105828	-0.040740	-0.042232	-0.131817	0.155478	0.088638	-0.009157	-0.098735	0.058869	-0.062358	0.035484	-0.035171	0.012995	0.007374	0.131497	-0.010148	-0.112906	0.042604	-0.028797	-0.172584	0.137055	-0.036233	-0.099297	0.033111	0.043596	0.057581	0.049423	0.188442	0.128516	0.182200	0.072632	0.039216	0.036293	-0.071408	-0.018413	-0.057065	-0.010965	0.082303	-0.047266	0.097173	-0.028234	0.073218	0.036738	-0.037953	-0.044602	-0.082340	0.177348	-0.169220	-0.020090	-0.076821	0.158610	-0.061211	-0.046577	0.113003	0.121689	-0.106745	0.065534	0.033256	0.018290	0.184364	0.107856	0.081542	-0.068264	0.015663	-0.114838	-0.011721	0.113294	0.008783	-0.083387	0.080196	0.046397	-0.089523	-0.134116	-0.130723	-0.072739	-0.079310	-0.159815	0.001298	0.005700	-0.066470	-0.106835	-0.126252	0.231158	0.093324	-0.071768	0.035160	0.004257	-0.041698	-0.028963	-0.001328	-0.075900	-0.031754	-0.067799	-0.132871	0.140612	-0.156338	0.090280	0.126933	0.065528	-0.009890	-0.018755	-0.114067	-0.023986	0.131990	0.070255	0.132898	-0.060415	0.012500	0.097042	0.144577	-0.096529	0.060641	0.030999	-0.179457	-0.027547	0.012805	0.206208	-0.032932	-0.041448	0.128671	0.149811	-0.112397	0.098486	0.139036	0.160462	-0.022256	-0.164528	-0.005174	-0.066669	
-0.126476	-0.028421	-0.015108	0.122250	-0.239758	-0.036041	0.002348	-0.006886	0.014779	-0.018141	0.013498	0.030104	-0.036237	-0.002339	-0.070832	0.072296	-0.090347	-0.098985	-0.095783	0.086842	-0.152588	0.017613	0.025839	0.081974	-0.232016	-0.151601	-0.130323	0.052301	0.163847	-0.007752	0.115421	0.020255	0.072327	0.042021	-0.164343	-0.104831	-0.028740	-0.121257	-0.081710	-0.046448	-0.073283	0.059594	0.043235	0.089888	0.044827	-0.192882	-0.125971	-0.142589	0.046796	-0.055576	0.078928	0.002479	0.068462	0.067742	0.073216	-0.051686	0.116314	-0.080750	0.110827	0.062634	0.055813	0.098936	-0.049217	0.001724	-0.156547	-0.096812	-0.088457	0.017622	-0.092141	-0.061605	0.035109	-0.055945	-0.092566	0.009965	0.103301	0.092430	0.033329	-0.011865	-0.188707	0.086514	0.092730	0.021556	0.016925	-0.033898	-0.132056	-0.003535	-0.044319	0.038930	-0.112224	0.159902	0.200897	-0.017872	-0.002884	0.022029	0.218807	-0.113128	-0.019682	0.037341	-0.044450	-0.096005	-0.117852	-0.015793	-0.085825	-0.000486	-0.127778	0.281293	-0.085160	-0.074237	-0.041346	-0.022232	0.026761	0.155630	-0.028042	0.002313	-0.040473	0.119199	0.036038	0.014350	-0.189435	0.193408	-0.172629	-0.018793	-0.084079	-0.105507	-0.173215	-0.006320	0.034168	0.017487	-0.084197	-0.036192	-0.135666	0.154349	0.079906	0.020798	-0.029564	0.041770	0.048799	-0.075226	-0.044382	0.091249	0.092429	0.079477	-0.052117	0.104643	-0.063352	-0.049895	-0.093474	0.080983	-0.018862	0.055627	-0.038880	-0.002407	-0.089432	-0.099245	0.034142	0.017872	0.230136	-0.037008	0.026004	0.023202	-0.036043	-0.083352	-0.034149	0.111707	-0.257947	0.011191	-0.029163	-0.057233	-0.059799	0.025272	0.117692	0.046434	0.016504	-0.045449	0.189292	0.094370	0.091148	0.038717	0.058840	0.105212	0.016148	0.079108	-0.075304	0.058971	0.048019	-0.102670	-0.031002	-0.105298	-0.098585	-0.038366	0.094411	0.177404	0.135400	0.139037	0.007724	0.019922	-0.162176	-0.172002	0.045737	0.047503	-0.017861	-0.024778	0.018656	0.135072	0.151371	0.185602	0.022136	-0.073864	0.131722	0.108400	0.059345	-0.027788	-0.041395	-0.004293	0.156928	-0.052809	0.100286	0.017457	0.015257	0.101267	0.064312	0.033624	0.024943	-0.194845	-0.005105	0.095052	0.082750	0.005078	-0.076375	-0.251186	-0.035277	-0.110937	0.076250	0.076182	-0.040844	-0.100847	-0.045116	0.155529	0.155002	-0.081264	0.270607	0.104251	0.206717	-0.030600	0.147290	-0.186425	0.132700	0.010034	0.161292	0.039516	0.090517	-0.014186	-0.151320	0.000133	-0.213243	-0.081407	
0.056523	-0.047303	-0.068208	0.046856	-0.176687	-0.087322	0.131252	0.084380	0.113715	0.022285	0.097688	-0.044971	0.061702	-0.031981	-0.043324	-0.028970	0.104736	0.050738	0.204117	0.105528	0.046358	-0.010841	0.113977	0.067167	-0.000901	-0.088400	0.137865	-0.038895	0.037314	-0.020207	0.012567	0.086527	-0.014188	-0.171708	0.185537	0.025047	0.112277	0.026169	-0.011737	0.141130	0.066014	-0.010643	-0.087200	0.235286	0.093286	0.075108	-0.033765	-0.035854	0.094009	-0.003485	0.074306	0.130439	-0.028163	0.043762	0.078161	0.007552	0.073089	0.123142	0.130054	-0.076469	0.144423	-0.120443	-0.025958	0.040650	0.050617	-0.131827	0.175440	0.112596	-0.165417	0.092697	0.162660	-0.042533	0.073974	0.079605	-0.136087	0.064383	0.037284	-0.130568	-0.086486	0.055600	0.031058	-0.036133	0.034707	-0.093898	0.113064	0.159713	-0.153504	-0.075140	0.194562	0.011105	0.121069	0.032986	-0.159179	-0.129069	-0.038810	-0.106752	-0.072793	-0.071305	-0.066360	-0.000866	0.036577	0.104109	-0.138593	-0.050125	0.118575	0.169023	0.132135	-0.132597	0.054899	-0.225662	0.095164	-0.122380	-0.154402	-0.019699	-0.073265	-0.149412	-0.048216	-0.087877	-0.151327	-0.143069	-0.105819	0.150816	0.006689	0.062869	-0.082178	-0.072964	0.060131	0.106783	-0.023390	0.192423	0.034671	0.149587	0.130436	-0.019688	-0.111808	0.216102	0.164538	0.219264	-0.033951	-0.039202	-0.086942	0.048407	-0.060618	-0.103093	0.032460	-0.045706	-0.063252	-0.072754	0.233099	0.191625	0.068533	0.079090	0.080417	0.245115	-0.124822	0.011769	-0.217225	-0.029124	-0.017720	0.001455	-0.100583	-0.124353	-0.073447	-0.049177	0.072196	-0.102891	-0.104137	0.169019	-0.098876	-0.002375	0.140336	-0.105139	-0.060093	-0.078475	0.037087	-0.089087	-0.058271	-0.069739	-0.206284	-0.041483	0.011662	0.118044	0.043146	0.062500	-0.051697	0.120689	0.027861	-0.043397	0.020619	-0.060940	-0.024373	0.008920	-0.094029	0.154553	0.124679	0.016898	-0.032606	-0.024380	0.010540	-0.016580	0.192897	0.027364	0.033057	-0.007819	0.019804	0.024094	-0.133788	0.163393	0.081917	-0.113217	-0.046259	0.121959	-0.023225	0.007188	0.214919	0.108164	0.129007	0.151289	-0.119854	0.006452	-0.104874	-0.122786	0.046117	0.120993	0.059158	-0.135155	-0.087797	0.100977	0.101277	0.014844	0.004349	-0.068227	0.070838	0.230327	-0.052069	0.128786	-0.125629	-0.157420	-0.075431	0.069531	0.061806	-0.025517	0.010273	-0.062566	0.051478	-0.039608	-0.080512	-0.028386	0.112372	0.066972	0.074908	0.023928	-0.008925	-0.087261	-0.014882	0.034042	
-0.027928	0.063678	0.179588	-0.106679	0.197244	-0.030632	0.012170	0.046539	-0.199672	0.170185	0.052294	-0.108724	-0.173108	-0.147318	0.003297	-0.000468	-0.035034	0.199542	-0.064005	-0.065179	0.179481	-0.046313	-0.015962	0.052091	-0.177898	-0.057026	-0.248330	-0.291594	-0.053924	-0.093352	0.048997	-0.021049	0.046807	0.085943	-0.077188	-0.097525	-0.040421	-0.096878	-0.165237	-0.108843	-0.081041	0.081413	0.037678	-0.043669	-0.025458	-0.036594	0.040965	0.070199	-0.019776	0.132523	-0.291345	0.193172	-0.131488	0.237418	-0.079178	-0.047219	-0.127097	-0.026688	0.058240	0.084795	0.173193	-0.037258	0.082520	0.013134	-0.030624	0.054000	-0.016366	0.100887	0.101458	0.141705	-0.005907	0.124442	0.043745	0.035574	0.087773	0.065795	-0.147405	0.038142	-0.068859	0.210957	-0.086555	-0.010374	0.014676	0.052449	0.086802	-0.059148	0.072499	-0.066797	0.074230	0.107717	0.065998	-0.023998	-0.203601	0.113349	-0.132243	0.047179	0.009315	-0.085456	0.140480	0.134629	0.118629	0.108312	-0.072209	-0.083849	-0.113163	-0.117539	0.107717	0.095206	-0.175465	0.118848	-0.105519	0.092356	0.089129	0.079691	-0.041597	0.009649	0.114823	-0.008883	0.150664	0.118903	-0.016746	-0.147463	-0.009087	-0.018844	0.152114	0.006326	-0.011770	0.067941	0.032361	-0.087651	0.043133	0.070442	0.057498	-0.011586	0.174718	0.089092	0.133634	0.017515	0.022805	0.098633	-0.032326	-0.049691	-0.088761	0.061365	-0.157323	0.045651	0.092279	0.119196	0.087112	-0.038434	0.028983	0.018177	0.068744	-0.139211	0.064954	0.107888	0.024977	-0.125916	0.112607	0.105278	0.085744	0.041225	0.178383	-0.163223	-0.025787	-0.034397	0.178074	-0.076204	-0.001427	0.019416	-0.073484	0.017225	0.061082	-0.002265	-0.034913	-0.054958	0.060274	-0.119695	0.143396	-0.158523	0.165074	-0.122411	0.111145	-0.087824	0.002003	0.051766	-0.073001	-0.104460	-0.007071	0.069190	-0.113650	0.069974	0.069903	-0.009245	0.107710	-0.063589	-0.142756	-0.092646	0.141757	0.001801	-0.032385	-0.076717	0.029358	-0.075185	0.044657	0.008960	0.055282	0.078743	-0.007549	-0.012272	0.066040	-0.035598	0.013494	0.077968	0.108084	-0.044352	-0.140745	0.051298	-0.013378	-0.112652	0.054390	0.029259	0.158961	0.048241	-0.181330	-0.108053	0.016138	0.097006	-0.035767	0.097379	0.041158	0.141406	-0.021044	0.093440	-0.105685	-0.013852	-0.053333	-0.031709	0.051856	-0.047268	-0.022683	0.014552	0.078870	-0.059766	-0.082747	0.049325	-0.152000	0.111423	0.051366	-0.032893	-0.164947	-0.050289	0.079039	-0.028975	-0.008515	-0.029749	
-0.055147	-0.070074	0.016335	-0.057174	0.041270	-0.062019	0.158707	0.102959	-0.090322	-0.140294	0.033890	-0.030734	-0.058322	0.089085	0.043280	0.073851	0.107717	-0.016956	0.012176	-0.116474	0.074798	0.000088	-0.105016	-0.109981	0.093419	-0.025363	0.083244	0.082068	-0.040853	-0.077692	-0.032082	0.102864	0.188444	-0.026899	-0.034266	-0.015428	0.155323	0.024208	0.002048	0.042014	-0.125802	-0.060290	-0.002066	0.030271	0.026831	0.022211	-0.000441	0.038807	0.175426	-0.141712	-0.139414	0.019919	0.036455	-0.091072	0.223957	0.091511	0.032097	0.078736	-0.051500	-0.007038	0.011514	0.040364	0.154290	0.019545	-0.022394	0.000545	0.102469	-0.028658	0.057827	-0.036114	-0.051552	0.063882	0.039738	0.152154	0.006623	0.020766	-0.011878	-0.002664	-0.031534	-0.078248	0.130345	0.113389	0.053731	0.167924	0.029384	0.076659	-0.042276	-0.097924	-0.097783	-0.172000	-0.158273	0.105654	0.024880	-0.112945	-0.034830	0.043264	-0.024877	0.102376	0.040601	0.104594	0.166744	0.009148	0.086213	0.027009	0.007030	0.104401	0.088862	0.100487	0.080074	0.070922	0.042566	0.033566	0.124990	0.195866	0.205071	0.067184	-0.028144	-0.214175	0.280901	0.015003	0.336485	-0.034242	0.227587	-0.045676	0.027922	-0.069717	-0.096746	0.011221	-0.031285	0.174994	0.111972	0.142709	0.077827	-0.100973	0.097811	-0.051407	-0.019714	0.006082	-0.048770	-0.048412	-0.140112	-0.158426	0.041811	-0.057432	0.079110	0.060239	0.046213	0.161441	0.112194	0.074011	0.146910	0.129793	0.047480	0.112830	0.005991	0.079437	-0.092568	-0.001172	-0.122816	0.062664	-0.109535	0.063436	0.017741	0.043224	0.054487	-0.112030	0.085234	0.054466	0.025601	-0.163532	0.024571	-0.007240	-0.123905	0.102530	-0.151015	0.032445	0.041360	0.179739	0.145990	0.073234	-0.004425	-0.180251	0.081508	0.013829	0.017875	0.019439	0.033780	-0.083291	-0.162840	0.102384	-0.079502	-0.151210	0.090016	-0.134811	0.129784	-0.108668	0.148925	0.094781	-0.060076	-0.026145	-0.091985	0.153314	-0.007435	-0.197631	-0.072436	-0.008277	0.040577	-0.084213	-0.141388	-0.113335	0.154226	0.085862	0.060164	0.051476	-0.049645	-0.033026	0.026034	0.046927	-0.137532	-0.180825	0.020517	-0.144721	0.025941	-0.019242	-0.131805	-0.108251	-0.096277	0.109420	0.051797	0.013008	0.030845	0.086594	0.020398	-0.209964	0.032477	0.131638	0.018109	0.098385	-0.038976	0.095994	-0.217325	-0.015759	-0.094502	-0.109449	-0.311111	0.049553	-0.197292	0.039449	-0.187459	-0.090920	-0.063184	-0.116259	0.108773	-0.247741	0.104082	-0.006210	
0.074521	-0.041287	0.060555	-0.066182	0.021505	0.068881	-0.119888	-0.015730	-0.080473	0.018797	-0.066043	-0.144221	-0.031818	-0.023147	0.090860	0.071679	0.024953	-0.132809	0.045231	-0.108309	0.163879	-0.068589	-0.074232	0.068707	-0.097067	-0.007844	-0.013371	-0.142482	0.033975	0.112438	-0.068112	-0.035235	-0.166119	0.010038	-0.154078	-0.106595	0.003041	0.058738	-0.110520	-0.094115	-0.076905	-0.119192	0.103835	-0.115942	0.078085	0.040316	0.012316	-0.108882	0.018897	-0.011129	0.101564	-0.083647	0.026074	-0.029351	-0.198847	0.085421	0.017617	-0.100292	0.112665	-0.116486	-0.053993	0.073045	-0.101126	-0.050370	0.127433	-0.005469	0.044857	0.037812	0.196889	-0.118918	-0.035923	0.056412	-0.006253	-0.021205	0.022092	-0.022256	-0.053489	-0.088254	-0.156604	-0.049920	-0.008195	-0.172187	0.136420	-0.000287	0.114232	0.053637	0.107042	-0.018165	0.145273	0.177886	-0.000638	-0.072577	0.057854	0.000191	0.037823	-0.024730	-0.118917	0.061464	0.035865	-0.051382	0.054483	0.057593	0.082917	0.138086	-0.070099	0.080580	-0.149457	-0.019419	0.026149	-0.088091	0.037229	-0.042194	-0.090317	-0.086890	0.022118	0.055581	-0.036998	0.107018	-0.143613	-0.183446	-0.022619	-0.098670	-0.221403	0.038578	0.099080	-0.025727	-0.134193	-0.066285	0.007316	-0.194646	-0.204091	-0.099754	-0.191550	-0.111780	0.073349	-0.015456	-0.003705	-0.114593	-0.035667	0.180277	0.074900	-0.027029	0.016364	0.067666	-0.146574	-0.057252	-0.012591	-0.060157	-0.104483	0.115563	-0.056694	-0.035033	0.166071	0.116170	0.175892	0.141654	0.075059	-0.055422	-0.080983	-0.113795	-0.005639	-0.087362	0.018981	-0.040725	-0.088116	0.016876	-0.120666	0.076345	0.028335	0.250439	0.067640	0.033197	0.063460	0.065865	0.101830	-0.003368	0.106603	0.053791	-0.065764	0.216016	0.111362	-0.028653	0.034177	-0.036305	-0.083811	0.013480	0.002303	0.160762	0.031138	-0.053492	0.071304	0.097840	-0.023880	-0.099812	-0.257188	-0.031164	-0.141963	-0.013786	0.066957	-0.085094	-0.088438	-0.201435	0.130462	0.005518	0.186727	0.055468	-0.021953	-0.001009	0.086944	0.005952	-0.104801	0.064965	0.000052	-0.173656	-0.040761	0.114262	0.139095	-0.021766	0.205631	-0.002326	-0.097392	0.117868	0.127131	-0.048878	0.138279	0.034995	-0.072855	0.123262	0.065315	-0.104979	0.059573	0.015724	0.051332	0.158967	0.123013	-0.052430	-0.158866	-0.054000	-0.099287	0.049177	-0.028151	-0.095336	0.108726	-0.055844	0.171279	-0.049434	-0.035992	0.136099	0.052765	0.051057	0.045295	-0.051376	-0.070800	0.055600	-0.085595	0.048613	
-0.048958	0.003415	0.052803	0.079141	0.015544	0.128501	0.081630	0.022465	0.010129	0.154170	0.019517	0.093848	-0.208820	0.099862	-0.116409	0.180731	0.054140	0.187362	0.142944	0.202194	0.072032	-0.076873	0.193250	-0.043177	0.142171	0.046488	0.176300	0.101604	-0.008414	-0.034822	-0.120487	-0.048311	0.062304	0.120749	0.120766	-0.004796	0.059433	0.014970	0.002511	0.044266	0.080574	-0.089570	-0.056884	-0.117984	-0.096679	0.006525	-0.014005	0.207527	-0.061986	0.029710	0.044037	0.061515	-0.159508	0.160413	-0.026370	-0.192241	0.129868	-0.084336	0.124796	0.037337	-0.121608	0.016209	-0.159310	-0.145565	-0.022742	-0.076250	-0.055026	-0.009817	-0.166441	-0.043329	-0.215364	0.068492	-0.111861	0.028075	0.144630	0.065108	0.079680	0.154914	0.102143	-0.010756	-0.047598	-0.054618	-0.011320	0.116715	0.082604	-0.042083	-0.004759	0.162814	-0.149638	-0.216880	-0.006983	0.089480	-0.137597	-0.180853	-0.028643	-0.003567	0.091161	0.111849	-0.163001	0.088984	0.035610	0.069432	-0.111381	-0.076527	-0.162617	-0.168077	0.035909	0.031582	0.088302	0.001161	0.192581	-0.126185	-0.073353	-0.026445	-0.074598	0.022158	-0.006457	0.233401	-0.048109	0.011309	-0.121243	-0.013615	0.050680	0.073167	0.021473	0.020927	-0.093519	-0.111257	0.017708	0.029160	0.192063	-0.109308	0.146147	-0.051240	-0.000005	-0.176331	0.030596	-0.175729	-0.049233	0.019743	0.029799	0.114040	0.028113	-0.142261	-0.051104	0.077060	-0.038245	-0.054488	0.017687	-0.058153	-0.038258	-0.082458	0.066579	-0.163638	-0.076140	-0.024351	0.148348	0.045214	-0.008013	-0.162915	0.188888	-0.020567	-0.152960	-0.070925	0.125978	0.103949	0.017751	0.020685	0.115158	-0.108308	0.022686	-0.148490	-0.008266	-0.038556	-0.019460	-0.155731	0.095659	-0.104156	-0.113764	0.100620	-0.020065	0.006531	-0.058761	0.033260	0.150516	0.026101	0.047896	0.146181	0.084941	-0.073946	0.049232	0.119382	-0.021723	-0.118676	0.010133	-0.138750	0.209579	-0.020072	0.103327	0.094310	-0.021696	0.110521	-0.029364	0.044773	0.013269	-0.097956	0.088433	-0.048831	-0.009166	0.067993	0.082585	-0.054150	0.027932	0.013771	0.061208	-0.029473	-0.232473	0.046792	-0.172823	-0.219878	0.067048	-0.159426	0.199704	0.124896	-0.133814	-0.144890	0.050875	-0.129184	-0.088099	0.040356	-0.131702	-0.047495	-0.015058	0.029471	-0.122082	-0.003324	0.152397	-0.119912	-0.061193	0.024355	-0.079016	-0.168756	0.000359	0.051549	0.077408	-0.003046	-0.007027	0.098541	-0.114964	0.153151	-0.136672	-0.071461	-0.018191	-0.082975	0.081125	-0.246090	
0.010700	-0.074125	0.002822	-0.062233	-0.105447	-0.112847	-0.019049	-0.102413	0.048209	-0.131061	-0.116665	0.004346	-0.070694	-0.057435	0.055252	0.018940	0.044328	-0.178857	-0.018245	0.039706	-0.017226	0.034314	-0.150865	0.112254	-0.103642	-0.109420	-0.122174	0.044659	-0.028934	-0.147078	0.085228	-0.119931	0.023935	-0.151504	-0.135713	0.086572	-0.108327	-0.069830	-0.031943	-0.022485	-0.122485	0.007361	0.022489	0.123952	0.036795	-0.068496	-0.064599	-0.066954	0.022141	-0.119681	-0.024138	0.104517	0.032546	0.119090	0.112554	-0.150180	-0.028130	-0.031943	0.025661	0.121787	0.139285	0.065262	-0.076532	-0.087315	0.026465	0.061608	-0.101559	0.026578	-0.154390	-0.051700	0.008566	0.060604	0.089885	-0.036597	-0.082273	-0.058994	0.155378	-0.001263	0.018599	-0.107969	-0.016488	0.100626	-0.145077	0.076591	-0.009309	0.078249	-0.013035	-0.116150	0.046889	-0.136569	-0.021534	-0.086275	0.128758	-0.028993	0.207366	-0.082363	-0.048296	0.015178	0.075724	-0.031846	0.043712	0.104907	0.043007	0.015487	0.028554	-0.116064	-0.083118	-0.168689	-0.122855	0.017031	-0.077049	0.133606	-0.019771	-0.053692	-0.065171	-0.029074	0.109996	0.006453	-0.233865	-0.073899	-0.034294	-0.029921	-0.020710	0.033143	-0.121035	0.104990	-0.080744	0.026150	-0.050944	-0.022299	-0.132730	-0.178787	-0.006691	-0.105787	-0.098915	-0.086967	0.070478	-0.205473	-0.095634	0.046190	0.026226	0.063454	-0.128781	-0.125489	-0.066610	0.188099	0.051070	-0.002877	-0.033120	0.047696	-0.079093	-0.045534	-0.133322	-0.128625	0.090060	-0.016137	0.093754	-0.083116	0.107789	-0.042949	0.094132	0.001719	0.090762	0.065365	-0.169828	0.151318	0.076077	-0.010420	0.110933	-0.009573	0.133471	0.066533	0.041326	0.014009	-0.073464	-0.083497	-0.031520	-0.092456	0.032636	-0.094122	-0.111771	0.073592	-0.020128	-0.130924	0.060046	-0.122895	-0.139385	0.004892	0.002538	0.015559	0.121348	0.046609	-0.052330	0.072793	0.095673	-0.076796	0.087987	0.076859	-0.072707	0.035015	0.015801	0.003157	0.032132	-0.074491	-0.013469	0.026601	0.099446	-0.082309	-0.051865	-0.050179	-0.043635	0.060038	0.101290	-0.106768	-0.086472	-0.009848	-0.021490	-0.054233	0.033755	0.130336	-0.002854	0.016547	0.108726	-0.065866	0.182233	-0.136048	0.068361	0.141155	0.033332	-0.093058	0.029959	0.022033	0.069122	0.116985	-0.006724	0.163535	-0.004488	-0.041725	0.010787	0.040410	0.067923	-0.194360	0.084745	0.053974	0.014993	-0.083716	-0.047165	0.002307	-0.058639	0.001112	0.096434	-0.028645	-0.051645	-0.148502	0.001651	0.003476	
0.002201	-0.063948	-0.026354	0.003524	-0.087305	0.005906	-0.111654	0.111269	-0.109719	0.106244	-0.025558	-0.005610	0.038762	-0.006694	-0.035979	0.015053	-0.042628	-0.098773	-0.094100	-0.022079	-0.123083	-0.064070	0.079271	0.085354	-0.077322	-0.019112	-0.079019	0.042066	0.028863	-0.015588	0.161506	0.049249	0.042321	-0.128747	0.034991	0.141471	0.020197	0.032956	-0.076739	-0.007399	0.060045	0.084556	0.113971	-0.025889	-0.036049	0.083599	0.223222	-0.080689	-0.086487	-0.048360	-0.078666	-0.109837	0.037061	0.146706	-0.081352	-0.079284	0.013396	-0.134094	-0.105689	-0.001838	0.020203	0.014185	0.154371	0.108237	0.036370	0.058496	-0.216262	0.089272	0.119340	-0.086847	0.002409	0.001774	0.037978	0.123556	0.066079	0.023917	0.113255	-0.083455	-0.128359	0.031813	-0.014331	0.100783	-0.056648	0.092298	0.130230	-0.085727	0.115920	0.090065	-0.044418	0.070644	-0.029855	0.026257	0.059019	-0.043410	0.061017	0.132617	0.048397	-0.031519	-0.070073	-0.051654	0.029227	0.087117	-0.135606	0.237102	0.007632	-0.004599	-0.124647	-0.069378	-0.041059	-0.031861	0.084587	0.005129	0.032216	0.092028	-0.159842	0.137874	0.070397	0.006870	-0.079545	-0.079647	-0.080973	0.094441	-0.182294	0.060459	0.185905	0.026757	-0.007124	0.097059	-0.140606	-0.021932	-0.111597	-0.117724	-0.188958	0.027441	-0.110007	-0.187525	0.018657	-0.115762	0.099128	0.090331	0.126105	0.161655	0.126261	0.027496	-0.101355	0.242421	-0.219298	-0.026700	-0.071116	-0.140269	0.142023	-0.081304	0.020293	-0.170438	0.003069	0.004282	0.012869	0.092786	0.146907	0.015428	0.026562	0.040204	-0.056642	0.187503	0.132173	0.100345	0.038672	0.002311	0.185643	-0.078776	0.141946	0.156305	0.034982	0.125419	-0.106202	0.027301	0.145011	0.023554	-0.005432	0.145885	-0.043962	0.129609	-0.066848	-0.073892	0.081704	-0.074346	-0.106326	0.196262	-0.037526	0.149271	-0.059382	-0.115941	-0.009944	0.110503	-0.145597	0.168643	0.016071	0.012398	0.006032	0.077730	0.133278	-0.021440	0.074798	-0.020126	0.080003	0.038749	-0.118553	0.047446	0.119568	0.157397	-0.014105	-0.050193	-0.035183	-0.026860	0.021293	-0.087196	0.014408	-0.199645	-0.046524	-0.012673	-0.010165	0.096399	0.137710	-0.032667	0.164841	0.096303	0.091345	0.040282	0.145662	-0.046770	0.002102	0.062002	0.145867	-0.156147	0.045103	-0.012550	-0.103012	-0.057302	0.026913	-0.082860	0.130411	0.058186	0.053773	0.000229	0.173617	-0.040446	0.011613	0.002930	-0.006766	0.072249	0.012448	0.006439	0.100047	0.124455	0.089438	-0.040245	
-0.021831	0.001826	0.089588	0.006988	-0.012368	-0.094075	-0.026994	-0.011080	-0.088119	-0.057466	-0.016434	-0.036738	0.021339	0.050788	-0.050541	-0.092000	-0.211269	0.117214	-0.073928	-0.200506	0.018438	0.103896	0.077874	-0.117796	0.023481	-0.034159	-0.095131	-0.067226	0.001106	-0.118944	-0.112485	-0.002391	0.010558	-0.022245	0.089634	-0.067501	-0.112572	-0.010882	0.145582	0.089885	-0.099067	-0.069464	0.027147	-0.066256	0.059991	-0.128347	0.055093	0.128659	0.053228	-0.037733	0.053391	0.130322	0.139028	0.044144	0.034857	0.086053	0.156494	0.030481	0.074266	0.022196	0.097919	-0.164695	-0.124033	-0.040508	-0.053809	0.063465	0.061037	0.001773	-0.128529	0.055968	0.045524	-0.025228	0.096519	-0.108286	-0.155196	-0.021223	-0.006136	-0.052177	0.107214	0.053588	-0.033953	-0.000039	0.007965	0.106000	-0.051975	0.068071	0.131481	-0.012586	0.003926	-0.072513	-0.005355	-0.085491	0.024748	-0.021548	0.026076	-0.014572	-0.127601	-0.129443	-0.002733	0.055266	-0.076862	-0.020860	-0.142041	0.052603	0.035514	-0.002456	-0.015556	0.114920	0.021254	-0.036891	-0.012233	-0.078082	-0.072057	-0.033073	0.131208	-0.046352	-0.081596	-0.103283	-0.034992	-0.089573	0.029029	-0.086198	0.044162	-0.093901	-0.002179	0.055986	-0.064233	-0.077649	0.029621	-0.078240	0.257417	-0.182818	-0.077181	-0.058727	0.157032	0.083431	0.041480	0.004469	-0.177462	0.016173	-0.042009	0.165666	-0.047518	-0.056637	-0.009132	-0.198919	-0.056697	-0.034419	-0.103386	0.047529	-0.038459	-0.116935	0.112611	0.186311	-0.006337	-0.038690	-0.028792	0.157578	0.034281	-0.015957	-0.082999	-0.174694	0.002626	-0.140742	-0.304442	0.200617	0.116589	-0.035970	0.141286	0.120938	0.122507	-0.048691	0.002196	-0.269795	-0.067958	-0.281249	0.159371	-0.057634	-0.063645	-0.074920	-0.063541	0.028072	0.052032	-0.136754	0.038091	-0.056230	-0.046935	-0.012274	0.034894	-0.136531	0.006754	0.035332	0.077327	-0.040635	-0.045581	-0.020152	-0.157081	-0.054965	-0.048494	0.199799	-0.101398	0.233250	-0.049320	0.106209	0.029917	-0.080377	-0.010465	0.042963	-0.027025	-0.208991	-0.301544	0.039495	-0.171377	0.148536	0.008659	0.177075	-0.015693	-0.003243	-0.134405	-0.035051	0.091262	-0.181080	0.178020	0.015749	0.078821	-0.151926	-0.105256	-0.042620	0.072011	-0.048407	-0.280957	0.128463	-0.159796	0.186239	-0.110236	-0.135206	0.117908	-0.051920	0.086205	-0.138944	0.026323	-0.157056	-0.000791	0.026975	0.021769	0.029387	-0.238374	-0.074289	0.000740	0.195094	-0.057183	-0.157020	-0.142587	-0.033054	0.161192	-0.157229	
0.030953	0.084767	0.186666	0.062173	0.061413	-0.254287	0.017482	0.116543	0.064085	-0.036424	0.180449	-0.036628	-0.070154	0.148819	-0.013859	-0.024547	0.046604	-0.105605	0.178086	0.020987	0.206463	-0.163156	0.187105	0.213223	0.144353	0.125716	0.171090	-0.005186	-0.122771	-0.116132	0.068027	0.101974	-0.120791	0.003288	0.042375	-0.069020	0.133476	-0.161412	-0.064833	-0.000423	0.053287	0.020721	0.015115	-0.133746	-0.138876	-0.117826	-0.120391	0.042923	-0.093826	0.133515	0.241043	-0.233586	-0.024278	0.037629	-0.052957	-0.134442	0.146869	0.070825	0.184362	-0.201373	-0.121485	0.084118	-0.171586	-0.083985	-0.012775	-0.098569	-0.012809	0.076657	0.054403	-0.013817	-0.091353	0.109699	0.155321	-0.023024	-0.016083	0.082430	-0.012362	-0.078795	-0.172761	-0.098452	-0.082478	-0.121598	0.120263	-0.058226	-0.152861	-0.033135	-0.082295	0.184067	-0.107253	-0.110187	-0.129594	-0.082667	-0.062151	0.038328	-0.128579	0.046462	0.078185	0.039261	0.154657	-0.051359	0.080803	0.087535	0.085368	-0.003345	0.023339	-0.178323	0.046586	0.133099	-0.001881	0.141257	0.039179	0.041403	0.046114	0.038035	0.037195	-0.138286	-0.076066	-0.052865	0.139979	0.126557	-0.109113	0.073051	-0.034065	0.074380	0.069091	0.103790	-0.072569	-0.007934	0.009917	-0.118379	-0.092686	0.063183	-0.081781	-0.055792	0.093465	0.007467	-0.021199	-0.028858	-0.052055	-0.031025	0.213517	-0.062408	0.189454	-0.041687	-0.139006	0.070163	-0.082217	0.132544	-0.058580	0.095164	0.081992	-0.132235	0.054080	-0.151513	0.177234	0.113783	0.085461	-0.221857	0.141056	-0.057918	0.161202	-0.111100	-0.115460	-0.028310	0.120372	-0.056268	0.097438	0.000831	-0.036023	-0.010928	-0.019553	0.071070	0.025680	0.058348	-0.001127	0.087712	0.096084	-0.018734	-0.077212	0.082155	0.097294	0.135808	0.010621	0.127429	-0.039970	0.010196	0.132697	0.177837	0.013230	-0.053792	-0.077730	-0.033181	0.119452	-0.047778	-0.085915	-0.015697	-0.018596	-0.116332	-0.060249	-0.036814	-0.093535	-0.130366	-0.029516	0.072420	-0.018431	-0.087877	0.055820	-0.087923	-0.196511	0.029310	0.001463	-0.100740	-0.059612	-0.119848	0.022992	-0.063628	0.063801	-0.054258	-0.078655	-0.252964	-0.108142	0.017175	0.056528	-0.097273	-0.108817	0.081130	-0.112775	-0.034266	0.096345	-0.102207	0.097698	-0.085572	-0.046238	-0.116228	0.016940	0.073995	-0.097470	0.065170	-0.219106	-0.096779	-0.062117	-0.054625	-0.049420	0.109731	0.069185	0.108822	0.004304	-0.071988	-0.046930	0.046600	0.183396	0.047953	-0.107413	-0.035410	0.066059	0.071261	
-0.044373	0.204042	0.152253	0.201509	0.018559	0.056950	-0.046875	-0.172858	0.047629	-0.062535	-0.022179	-0.019252	0.065616	0.050201	-0.070111	0.067905	-0.025197	0.098278	0.065577	0.087883	-0.093474	-0.085798	-0.035141	0.076709	-0.126777	-0.024909	0.071098	0.057860	0.144047	0.033254	0.096870	0.020871	0.017902	-0.068141	0.011644	-0.101363	-0.123367	-0.049614	0.043829	0.032320	-0.279365	-0.141721	-0.112218	0.102172	-0.050769	0.146674	0.144098	-0.010168	0.093021	0.023903	0.011781	0.090665	-0.086411	-0.010865	0.015013	-0.111246	0.044853	-0.025887	0.196144	0.070497	0.107077	0.013692	0.081165	0.022221	-0.115052	-0.037095	0.091319	-0.176114	-0.036154	-0.006147	-0.008516	-0.065831	0.040711	0.065239	-0.011627	0.090265	0.122806	0.033633	-0.050897	0.034322	0.065577	-0.143266	0.043206	0.086907	-0.051618	0.004257	0.116209	-0.070934	0.102379	-0.082483	-0.025785	0.001696	-0.089929	0.022147	0.151733	-0.056590	0.027137	-0.035130	-0.075852	-0.097030	-0.303867	0.114507	-0.208130	-0.210322	-0.032485	-0.123156	-0.166766	-0.078133	0.125483	0.064991	-0.019292	0.034066	-0.020933	0.038135	-0.123377	0.119399	0.008216	0.010045	-0.017344	-0.028361	-0.157621	-0.005652	-0.047230	0.030926	0.092893	-0.030150	0.072954	-0.097812	0.053496	0.085866	-0.028751	-0.134144	0.053490	-0.136995	-0.032355	0.092955	-0.009646	-0.028701	0.071569	-0.013113	-0.077372	-0.078448	-0.081709	-0.007650	-0.039346	-0.045435	0.045304	-0.046090	0.032414	-0.010840	0.053871	-0.088439	-0.068302	0.166497	-0.081239	-0.158929	-0.030222	-0.069940	0.135423	-0.028610	0.092214	-0.040570	0.006637	0.021743	-0.133156	0.053268	-0.136960	0.152628	-0.047496	0.034964	-0.063588	-0.107930	-0.075119	-0.224264	-0.073518	-0.064139	0.007906	0.045878	-0.125984	0.163852	-0.007924	0.029499	0.047281	-0.047022	0.029909	-0.074707	0.021804	-0.026401	-0.284323	-0.076853	-0.018318	0.041253	-0.167717	-0.122123	0.212300	-0.055138	0.168548	0.138063	0.173649	0.263293	0.031624	0.156995	0.067658	-0.069438	-0.020938	0.130857	0.109028	-0.021372	-0.068390	-0.306252	0.053250	0.071596	-0.195748	0.198977	0.027538	0.204967	-0.154444	-0.011902	-0.002064	0.103622	-0.079068	-0.019176	0.055609	-0.004934	0.052211	-0.277671	-0.115735	-0.070209	-0.195059	0.094682	-0.178445	0.032209	-0.113073	0.033359	-0.237031	0.030478	0.145498	0.013304	0.207869	-0.181329	0.041614	-0.092010	0.001019	0.083659	-0.132867	-0.072431	-0.123457	-0.060693	-0.025253	-0.046755	0.034348	0.000849	-0.155408	0.000798	0.103774	-0.135890	
-0.174046	-0.153404	-0.055552	0.146689	-0.024728	0.081878	0.173284	0.082363	-0.107409	0.053542	-0.136734	0.002185	0.039780	0.018050	0.011371	0.128637	0.010491	0.105256	0.016760	-0.047857	0.141121	-0.052922	0.073418	0.046522	-0.077315	0.179233	-0.053932	0.067875	-0.060613	0.036176	-0.080958	0.094955	0.060147	-0.099667	-0.011567	0.052948	-0.039358	0.087615	0.038401	-0.115769	0.029646	-0.103848	0.000805	0.052222	0.007328	0.130746	0.126882	0.070917	0.057974	0.050548	-0.060992	0.012273	0.064348	-0.104147	-0.073020	-0.026903	-0.127609	-0.035484	0.070506	0.121644	-0.046413	0.041026	0.013381	-0.082978	0.070649	-0.019450	-0.000300	0.037909	-0.109835	0.171475	-0.171338	-0.018213	-0.125820	0.271204	0.056215	-0.079711	-0.048617	0.105472	0.014280	-0.010455	0.159412	0.206888	0.007223	-0.115399	-0.034636	0.030907	0.235636	0.042869	0.219719	0.000221	0.095623	-0.121580	0.091587	-0.085228	0.151045	-0.128512	0.074316	0.083229	-0.067102	-0.191516	-0.023662	0.015295	-0.057800	-0.114244	0.078302	-0.062963	-0.029415	-0.033761	0.010677	0.081081	0.046340	-0.120869	0.008544	-0.039659	-0.043167	0.017611	-0.047638	0.072023	-0.012183	0.011438	0.048772	0.008727	0.073472	0.029662	-0.090208	-0.012699	0.030213	-0.154232	0.156537	0.244140	0.074512	0.139298	0.061855	0.030262	0.005441	-0.100588	0.153903	-0.142931	-0.062314	0.053068	0.038758	0.221313	0.044032	0.091497	-0.054047	0.062522	-0.004796	-0.103244	0.217993	-0.116753	0.187274	0.068982	0.020092	0.142957	-0.002478	0.109613	0.014120	-0.097358	0.016675	-0.089553	0.094000	-0.152188	0.079851	-0.107225	-0.030219	0.121988	-0.094615	0.066863	0.048071	-0.005812	0.145778	0.097788	0.026554	0.113941	-0.082116	-0.077189	0.099301	-0.129399	0.028298	0.084630	-0.032837	-0.008228	-0.038611	0.174002	-0.127218	-0.079557	0.060543	-0.014487	-0.044524	0.035183	-0.038548	-0.111030	-0.038710	0.187538	0.069218	-0.222569	0.050719	-0.103198	0.009656	-0.009928	0.043812	0.006710	-0.069064	-0.122873	0.002969	-0.059577	-0.023515	-0.114701	-0.112209	0.124610	0.085883	0.189952	0.018968	-0.081713	-0.002532	0.029497	0.149087	0.200249	0.132525	0.048594	-0.192940	0.077801	-0.040622	0.103491	0.020274	-0.113571	-0.150453	0.158540	0.151136	0.107142	-0.036068	0.207038	0.011028	0.094675	-0.051369	0.042559	0.110778	-0.179072	0.125191	0.091637	-0.080234	0.091910	-0.129257	-0.112448	0.064480	0.099471	0.073858	-0.003034	-0.035289	0.078111	-0.016819	-0.064326	0.001128	-0.130542	-0.074172	-0.095892	
0.004573	0.117180	0.238784	-0.186381	0.183727	0.100417	0.006227	0.078439	0.032343	-0.057419	-0.097622	-0.116682	-0.287724	-0.129012	-0.214511	-0.054394	0.030331	0.079286	0.080184	0.002690	0.218914	-0.046073	0.051780	-0.057135	0.028369	-0.079452	-0.024298	0.031760	0.003393	-0.074262	-0.088955	-0.046334	0.009880	0.100811	-0.006374	-0.130353	0.134793	0.120863	0.120824	0.020503	0.049361	-0.020129	-0.147785	-0.014126	-0.046976	-0.149708	-0.002610	-0.010754	0.152610	-0.032085	-0.123139	0.234719	-0.145242	0.135382	-0.098263	0.080072	0.105754	0.036692	0.011033	0.027546	0.107286	-0.003755	-0.089252	0.122703	0.127349	-0.081026	0.092480	0.018011	0.222959	0.082042	-0.040878	0.095784	0.248312	0.175354	-0.048392	-0.002485	-0.090308	-0.055509	-0.032312	0.192031	0.073775	-0.358403	0.045776	-0.036041	-0.115395	-0.017085	0.028271	0.139028	0.084943	0.074324	0.018539	-0.024501	0.057223	0.034295	0.130223	0.067621	0.132992	-0.102656	-0.008958	-0.079811	-0.007847	0.098698	-0.194912	0.147068	-0.026819	0.121115	0.142462	0.171274	-0.104294	0.013851	-0.030545	-0.041423	-0.155323	-0.072749	-0.025690	-0.098995	0.117362	-0.075424	0.054948	0.085968	-0.101279	-0.024714	0.131011	-0.043487	-0.048965	-0.005367	-0.106090	0.173949	-0.073369	0.003492	-0.006774	0.296720	0.085381	0.105883	0.125814	-0.006043	0.133678	-0.016222	-0.038421	0.090216	0.047670	-0.058271	0.063897	0.029237	0.063699	-0.220493	0.014780	0.105665	-0.044666	-0.181710	-0.091555	-0.002837	0.009973	0.169823	-0.106241	-0.144122	0.186946	-0.041359	0.043332	-0.003895	0.053296	-0.049790	0.087133	-0.087943	-0.009228	-0.039731	0.039248	0.114633	-0.031008	0.192088	-0.008793	-0.031050	0.007269	0.022003	-0.151616	0.129267	0.125405	-0.094205	0.135581	0.025137	0.125171	-0.032414	0.098607	-0.117491	0.029374	-0.116792	-0.029434	-0.050531	0.008360	0.018831	0.070214	-0.000135	0.169097	-0.061481	0.044600	0.011119	0.139151	-0.055379	-0.068659	-0.087992	0.109749	0.061667	-0.179412	0.043658	-0.091064	-0.080123	-0.006192	0.012834	0.001713	-0.086849	-0.063919	-0.003108	0.076726	0.020628	0.096373	-0.066879	0.020933	0.042123	-0.048535	-0.118381	0.024342	-0.071768	-0.151364	0.044757	-0.006033	-0.112448	0.012174	0.100599	-0.035492	0.079525	-0.009506	-0.012281	-0.100377	-0.033771	-0.056947	0.020970	-0.039045	-0.081926	-0.096661	-0.029092	0.039746	-0.094199	-0.138726	-0.092991	-0.127646	0.053768	-0.113343	0.107159	-0.092627	-0.044165	-0.084192	-0.021339	-0.114937	-0.024796	0.041746	-0.016942	
-0.119568	0.002623	-0.159706	0.055184	-0.047400	-0.034658	-0.053478	-0.151089	-0.049942	-0.048687	-0.079690	0.135115	0.130595	-0.064149	0.152469	0.080657	0.008116	0.120846	-0.221515	0.018886	0.012783	-0.139520	-0.058043	0.160559	-0.092546	-0.001051	-0.014899	0.126992	0.049765	0.138000	0.025916	0.016647	0.208271	-0.012960	0.022549	-0.059841	0.150255	0.017052	0.051236	0.087006	-0.020373	0.133761	0.155380	0.086161	-0.110672	-0.048556	-0.108576	-0.046131	0.117834	-0.002214	0.051700	0.078111	0.052397	0.021212	0.018306	-0.054597	0.205213	0.086016	0.161527	0.058297	-0.064149	0.007059	0.049159	0.070994	0.028680	0.164934	-0.153209	0.048358	0.025055	-0.099668	-0.156418	-0.039806	-0.113962	-0.085430	0.044342	-0.108576	0.121319	0.054126	-0.028103	0.074264	-0.009654	0.181221	-0.051882	-0.193707	0.107723	-0.149739	0.038873	-0.030361	-0.163535	0.044411	0.064404	0.081413	-0.111760	-0.070027	0.135173	-0.036630	-0.062121	-0.122801	0.031842	0.042495	0.296816	-0.087312	-0.051265	-0.008346	-0.146078	0.068900	0.054083	0.011756	-0.031264	-0.131220	-0.155443	-0.060814	0.134789	0.097029	0.153310	-0.021102	-0.046013	-0.106868	0.024654	0.006941	-0.150650	0.077086	0.095486	0.102579	-0.043290	0.085993	-0.141060	0.056933	-0.024016	0.109471	0.060951	-0.124655	0.164064	-0.188956	-0.059738	0.058208	-0.115346	-0.076139	0.152900	0.018264	0.149839	0.181018	-0.028825	0.101535	-0.160600	0.047633	-0.142514	0.013642	0.081949	-0.180453	0.014493	-0.001679	0.054362	0.003470	-0.013935	-0.021476	-0.110528	-0.088819	0.153131	0.155780	0.067719	-0.133412	-0.117761	-0.061814	-0.064848	0.011332	-0.116451	0.075474	-0.075135	0.144098	-0.020799	-0.147094	-0.058228	0.092268	-0.030819	-0.016838	-0.122295	-0.074342	-0.145509	0.066766	-0.023739	-0.019634	-0.024235	-0.083586	-0.125275	0.023580	-0.015939	0.051505	-0.119125	0.113541	0.036344	0.047801	0.073830	-0.027349	0.043806	0.027268	0.029123	-0.025237	0.083334	-0.072368	-0.011897	-0.115369	-0.054212	0.080666	0.161118	0.143427	0.048348	-0.006661	-0.130719	0.136132	0.123634	0.084571	0.035755	-0.019768	0.134098	-0.088623	0.036789	-0.158723	0.070389	-0.029133	-0.156259	-0.022680	0.017771	-0.026957	0.030313	0.008225	-0.063681	0.015144	0.010706	0.024895	0.017739	-0.011168	-0.023474	-0.010905	-0.103251	0.129447	-0.048300	0.092286	-0.081092	0.143671	-0.149560	0.115102	-0.027926	-0.048024	0.086766	-0.041845	-0.041969	0.132902	-0.022657	-0.011206	0.035148	-0.055400	0.050341	0.089486	0.062033	-0.150121	
0.039978	0.044965	0.031273	0.007281	0.003736	0.058917	-0.046553	0.063474	-0.007862	-0.029104	0.075596	-0.018872	-0.077252	0.054313	-0.044610	-0.119180	0.037747	0.061022	0.054600	-0.156181	0.046062	0.000889	-0.026478	0.002711	0.052068	0.013651	-0.068695	-0.049870	-0.099672	0.047797	0.013697	-0.001478	0.141855	0.001032	0.053428	-0.110655	-0.010397	0.043417	-0.131930	-0.004508	0.033520	0.016866	0.074307	0.049087	-0.086520	0.038784	-0.008021	-0.083978	0.100340	-0.133256	0.060352	0.009482	0.114789	-0.050579	-0.009774	0.093054	0.027692	0.046357	-0.022892	0.020200	0.135259	-0.042925	-0.063062	-0.130878	-0.151898	0.098090	-0.068831	0.056058	0.093129	0.082866	-0.077541	-0.036768	-0.064568	0.038580	-0.001022	0.084466	-0.057173	-0.123604	-0.140971	0.007776	-0.020541	0.066138	0.088583	0.075917	0.043607	-0.071557	-0.104512	-0.043200	0.106919	-0.089568	-0.030726	-0.082291	-0.084521	-0.119170	-0.056771	0.058591	-0.127677	0.076475	-0.054655	0.100194	-0.040665	0.025755	0.075080	-0.127673	0.015231	0.152757	0.124271	-0.128735	-0.072753	-0.000119	-0.115191	0.164220	-0.065825	0.156391	-0.044306	0.028594	-0.180929	0.027851	-0.094341	-0.009666	0.075975	0.032807	-0.119189	-0.074427	0.079667	-0.031942	0.044586	0.054293	0.103571	0.025230	0.114049	0.047661	0.006528	-0.039236	-0.046885	0.107017	-0.015789	0.118523	0.092523	-0.023714	-0.157855	-0.086196	-0.103479	-0.022859	-0.037966	-0.058912	0.000872	-0.034037	0.196997	-0.017448	-0.096956	0.104172	0.166247	0.096705	0.069826	-0.033573	-0.128750	-0.095173	-0.043027	0.072648	-0.128760	0.071401	0.013876	0.049608	0.016913	-0.003158	0.141115	0.124243	0.075119	0.104410	-0.090525	0.103440	0.024787	-0.003872	-0.110863	-0.051813	0.082500	-0.041285	0.052167	0.097888	-0.047730	0.020692	0.054571	-0.116328	0.036262	-0.057015	-0.195596	0.095142	0.056075	0.038168	0.125051	0.089100	-0.038669	0.050368	0.171864	-0.073326	-0.049578	0.025674	0.121852	0.054311	0.063671	-0.084554	0.013091	-0.077487	0.053625	-0.073176	0.018196	0.016136	-0.071456	0.030834	0.082799	-0.035654	0.025657	0.062191	0.013332	0.080051	0.156182	0.040416	0.026724	-0.135731	-0.015075	-0.109283	0.086266	0.029336	-0.059282	-0.080558	0.033978	-0.053342	-0.085147	0.152228	-0.077045	-0.133612	0.065400	-0.045728	0.004751	-0.088704	0.099648	-0.029809	0.028737	0.019458	-0.098550	0.117366	-0.002766	-0.041855	-0.097079	0.015443	-0.071931	-0.124380	-0.042835	-0.063496	-0.170698	-0.073956	-0.010383	-0.056041	0.045463	0.003933	
-0.018811	0.085778	0.033280	0.054208	-0.025965	-0.060325	0.012864	0.026539	-0.014636	0.102557	-0.141423	-0.125973	-0.048759	0.029711	-0.091679	-0.010187	-0.120748	0.037249	0.064465	-0.005829	-0.104053	-0.095162	0.035754	-0.029661	0.005839	-0.073153	-0.062169	0.092250	0.043565	0.012317	-0.079126	0.124275	-0.137119	-0.042390	0.107935	0.148175	0.115208	0.088105	0.077472	0.152900	0.084464	-0.056651	0.003087	-0.108546	-0.070799	0.044429	-0.027401	-0.014756	0.084389	0.012018	0.053530	0.044624	0.070965	0.012834	-0.049910	0.145193	0.014921	0.171514	-0.003193	0.122168	0.113065	0.002223	-0.125281	-0.011336	-0.044951	0.092511	0.246252	-0.026913	0.059092	-0.131344	0.293738	-0.010004	0.131308	0.121680	-0.051519	-0.038931	0.063347	-0.135150	-0.184608	-0.082600	0.064212	-0.267882	0.055983	-0.027085	0.025342	-0.005892	-0.014966	0.084276	0.109665	0.157178	-0.020778	-0.050702	0.102149	-0.108506	0.024974	-0.021269	-0.005358	-0.178451	-0.061578	-0.112182	-0.123618	0.010908	-0.210480	0.117805	-0.196187	0.133381	-0.015259	0.064868	0.002153	0.099796	0.092413	-0.096952	0.034154	-0.115618	-0.233906	0.090412	-0.103693	-0.189369	-0.103754	-0.012620	-0.038251	0.057579	-0.105269	-0.052491	-0.103473	-0.078308	0.099472	-0.095649	-0.037811	-0.156538	0.086535	0.070845	-0.034324	0.008092	0.154201	-0.077233	0.237922	-0.057861	0.002551	0.166618	-0.025665	-0.063631	-0.013355	0.103805	-0.084285	-0.320033	-0.106315	-0.018613	-0.268083	0.026647	-0.136834	0.033643	-0.016024	0.161235	-0.071573	0.001548	0.027829	0.064067	0.139755	0.042471	0.008442	-0.128469	-0.232302	-0.054121	-0.003141	0.060166	-0.061780	-0.033668	-0.014177	0.106755	0.033076	0.133154	0.085380	-0.270384	-0.013063	0.092823	0.051029	0.058713	0.037604	0.007966	0.024064	-0.090858	0.036645	0.100703	-0.048028	0.064497	-0.009197	0.101475	-0.180749	-0.064545	-0.085590	0.035681	0.107654	-0.140636	-0.018843	-0.040773	-0.172115	-0.069756	-0.011059	-0.088367	0.007558	0.044856	0.043985	0.045581	-0.032890	0.072228	0.093456	-0.144944	0.052950	-0.320965	-0.258164	-0.160343	0.027619	0.072646	0.133982	0.073068	-0.163822	0.152668	0.013005	0.026143	-0.034458	-0.051702	0.042202	-0.201714	-0.161143	0.169069	0.053290	-0.019765	-0.042479	-0.091735	-0.090012	0.029614	-0.160090	0.120031	-0.263205	-0.096789	-0.172509	0.073520	-0.057170	-0.140157	0.213256	0.125742	0.103361	0.009218	0.102717	-0.161753	-0.050686	0.074824	0.203274	-0.007058	-0.031394	0.051881	-0.267445	0.198864	-0.106940	0.115736	
0.221697	0.036539	0.070559	0.085667	0.077793	0.101417	-0.149203	-0.126685	0.093185	0.005179	0.089095	0.214655	0.134690	0.235068	0.176972	-0.027048	0.136247	0.139859	0.010526	0.090389	0.162801	-0.047769	0.044799	-0.009737	-0.019380	-0.190845	-0.064732	0.115315	0.018335	0.101782	-0.027424	-0.043385	0.060235	0.025917	0.086196	0.010883	-0.007234	-0.058855	0.162165	0.148943	0.046307	-0.131107	0.055642	0.012702	0.020782	0.078226	0.035135	-0.110263	0.195367	0.049033	-0.149044	0.064075	-0.011925	0.095673	0.032288	-0.067703	-0.078631	0.026062	0.049707	0.034145	0.049055	0.061646	0.204273	-0.124084	0.011098	-0.031046	-0.003908	0.126786	0.035600	0.179510	0.130867	0.036594	0.072206	0.109707	0.105357	-0.039611	0.104293	-0.028293	-0.053803	0.050246	0.024555	0.245228	0.141547	-0.152125	0.098797	-0.001874	0.117156	-0.056107	0.094522	0.128239	-0.018702	-0.049288	0.052605	-0.016242	0.049649	0.091892	-0.076727	-0.020692	-0.130551	0.030457	0.065370	-0.069814	-0.006471	-0.070027	0.025616	0.075412	0.062144	-0.078141	0.173651	-0.069852	0.093753	0.173772	0.068772	0.070231	-0.222474	-0.181282	-0.024462	-0.056982	0.053413	0.073923	-0.109132	0.220907	-0.025697	-0.120905	-0.104661	-0.273398	-0.009683	0.020901	0.196262	0.107103	-0.021600	-0.146730	0.111722	-0.051688	-0.149738	0.038997	-0.022872	0.078336	-0.001586	0.120497	-0.014462	-0.042574	-0.124297	0.074911	-0.002085	0.205792	0.054695	0.050572	0.136799	0.092710	-0.016124	0.019468	0.007940	-0.036685	-0.090236	0.049158	-0.050606	0.159056	-0.088649	-0.009317	-0.057419	0.116784	0.170807	-0.022180	0.060959	-0.159223	0.181847	0.111396	0.102867	-0.118757	0.149114	0.026549	0.115420	0.069894	-0.055589	-0.013268	-0.039206	0.184515	-0.045372	-0.074470	-0.117092	-0.203155	0.033986	0.008721	-0.018723	0.060546	-0.005821	0.002663	-0.141319	0.072074	-0.131778	0.188431	0.042909	-0.034123	-0.033482	-0.018639	-0.074338	0.028351	0.197768	0.005241	0.005796	0.192260	0.013023	-0.029627	-0.033288	-0.089850	0.153066	-0.015776	0.187489	-0.224812	0.018127	0.107798	0.186828	-0.020758	0.085035	0.129749	0.007911	0.008084	-0.045582	-0.097449	0.035563	-0.080749	0.038792	0.036551	-0.074407	-0.026423	0.038097	0.022900	-0.026635	0.037776	0.121593	-0.163657	-0.120275	-0.083403	-0.074707	0.054655	-0.050004	-0.049891	0.196151	0.140267	0.044049	0.313484	0.024193	-0.016523	-0.089108	-0.119625	-0.048889	0.024055	0.037100	-0.061001	0.023914	-0.054082	0.072250	0.202961	-0.044720	0.023545	
-0.057123	-0.024518	-0.042692	0.084424	-0.137188	-0.027043	-0.000591	-0.060076	-0.018844	-0.035384	-0.110739	0.049775	0.091494	0.214800	-0.010547	0.108529	0.000228	0.052476	-0.204897	0.029665	0.002451	-0.055328	0.047216	0.087530	-0.014381	0.019203	0.100181	-0.114104	0.172081	-0.059507	0.065449	0.031558	-0.081558	0.032479	-0.054545	0.127727	0.051570	-0.119391	0.002329	0.071632	-0.108680	0.029360	-0.039307	0.012606	0.073646	0.008893	0.000887	0.013795	-0.000501	-0.085067	0.034606	0.060647	0.045257	-0.151003	-0.005790	0.010158	-0.127468	0.186955	-0.139644	-0.117334	0.030180	-0.121097	0.058064	0.032105	0.103407	-0.017804	-0.068528	-0.140722	-0.108456	-0.113577	-0.049232	-0.027344	-0.152220	-0.070856	-0.068171	-0.024494	0.064955	0.097002	0.063157	-0.084551	0.175640	0.198525	0.013288	-0.102248	0.051810	0.069307	0.140687	-0.128600	0.143283	0.005618	-0.112840	0.154445	0.051670	0.020459	-0.136762	0.102621	-0.133604	0.075503	0.088179	0.037230	-0.150289	0.038738	0.200622	-0.151769	0.250699	0.079204	0.009212	-0.132009	0.091903	-0.029730	0.055829	-0.023519	-0.090859	0.100893	-0.059318	0.047211	-0.071642	-0.071713	0.024820	-0.023758	0.120577	0.248188	0.150883	0.013249	0.026757	-0.063821	-0.143760	0.213829	-0.142564	0.108182	0.077547	0.074600	-0.029620	-0.049518	0.077160	0.017528	-0.065848	0.056891	0.028205	0.017933	-0.065446	0.118409	-0.055392	0.162098	0.245261	-0.007054	-0.042782	0.201509	0.063649	0.063139	-0.002203	-0.023858	0.139448	0.034220	0.075209	0.230917	-0.219675	0.092517	0.017489	0.107864	0.117785	-0.155246	0.204946	0.026651	0.023674	-0.035011	0.083223	0.113790	0.013647	-0.121666	-0.032150	0.090645	-0.004225	-0.083878	0.095937	-0.265168	0.033513	-0.086369	0.040638	0.173156	0.078402	0.092934	0.141020	-0.144567	0.073593	-0.177744	0.098995	0.114917	-0.086948	0.011302	0.126672	-0.025330	0.018616	-0.109834	-0.072772	0.081104	0.139547	0.141743	0.001951	-0.037172	0.083963	0.148417	0.073730	-0.123253	-0.125399	-0.141275	0.078624	-0.060696	-0.031115	-0.011605	0.060994	-0.088630	-0.176411	0.022652	0.014684	0.065928	-0.204471	-0.027552	0.011064	0.028938	0.012418	0.000288	0.103600	0.034888	-0.025577	-0.071078	-0.037315	0.056587	0.008444	-0.014650	-0.132699	0.012529	-0.120331	0.111395	-0.037614	-0.017562	0.111338	-0.178759	0.150435	-0.031033	0.116801	-0.085657	-0.024193	-0.020131	-0.064951	-0.017008	-0.076787	-0.082157	0.162938	0.031588	0.114088	0.026255	-0.030648	-0.052040	0.176363	-0.071785	
0.134840	-0.161250	0.031358	0.052347	0.047330	-0.065283	0.166718	0.090564	0.142896	0.069163	0.095861	0.131995	-0.141065	0.135561	-0.029497	-0.054426	0.235426	0.056085	0.320966	-0.064271	0.095987	0.063081	0.309774	0.008848	0.160686	0.031248	0.024191	0.145002	-0.069394	0.090867	0.020940	-0.126008	0.100669	0.090403	0.122324	0.081360	0.059986	-0.158542	0.226386	-0.132903	0.251925	-0.154584	0.056942	-0.033814	-0.182660	0.276657	0.000505	-0.005366	-0.017587	-0.019291	0.239766	-0.166589	-0.093921	-0.105613	0.029404	0.020705	0.014771	-0.145154	0.091181	-0.036018	-0.117769	0.168671	0.035163	-0.141802	-0.010941	-0.098101	-0.108007	-0.035486	0.102523	0.089980	0.017656	-0.017377	0.044242	-0.047006	-0.096514	-0.090664	0.037544	-0.067313	0.076206	-0.039687	-0.156767	0.006420	-0.050788	-0.092731	0.093613	0.052750	-0.055666	0.252460	-0.136492	-0.052866	-0.065277	-0.010191	-0.019292	0.087536	-0.143670	0.049358	0.022987	0.023397	0.033380	0.017995	-0.008304	0.083324	0.013427	0.255173	-0.058338	-0.100516	-0.051058	0.012644	-0.017939	0.089748	-0.006524	0.057904	0.094324	-0.168770	0.014280	0.106041	0.054174	0.026378	-0.029358	0.008357	-0.005994	-0.027696	-0.071839	-0.058880	0.076129	-0.083856	0.060628	-0.137535	0.097532	-0.005416	0.034736	-0.010048	0.229206	-0.026807	-0.084281	0.197720	0.151861	0.163674	-0.044255	-0.128217	-0.065196	0.045694	0.013076	-0.002340	-0.077629	-0.043456	-0.018939	0.093716	0.053245	0.107801	0.033756	-0.024107	-0.048474	-0.021956	0.014592	-0.033336	-0.144484	-0.105043	0.029302	0.209420	-0.034384	-0.027567	-0.001050	0.063513	0.130137	0.058529	0.011514	0.111187	0.027076	-0.041394	0.074736	0.074327	0.016235	0.070584	-0.020083	0.218380	-0.058768	0.124577	0.031424	0.061683	-0.062923	0.114210	-0.117521	0.054038	-0.036603	0.149231	-0.028947	0.009548	0.018842	-0.058593	0.034284	0.000640	-0.108959	0.227945	0.011644	-0.053834	-0.064686	-0.090631	0.116661	-0.217483	0.029540	-0.086392	0.005410	-0.039283	-0.182864	-0.026372	-0.036271	0.061446	0.006136	-0.044788	0.033942	0.086189	0.105663	-0.025766	0.001274	-0.121886	0.030068	0.047029	0.024649	-0.077741	0.160585	-0.067531	-0.022161	0.155418	0.020868	0.149581	-0.133293	0.157216	-0.003500	0.033061	0.244081	-0.109089	0.085178	0.047962	0.132068	-0.020679	0.104776	0.046705	0.009566	0.198483	0.162502	0.001913	0.068391	-0.029489	-0.122059	0.121675	0.017810	0.036244	0.026086	-0.137230	-0.068239	0.159266	0.095384	0.205543	0.072449	0.152921	
